svm_type c_svc
kernel_type rbf
gamma 0.000488
nr_class 2
total_sv 27
rho -0.220631
label 1 2
nr_sv 16 11
SV
59.2476107510181 1:-27.1 4:15 7:5 10:1.590909 11:0.227273 12:1.818182 14:15 16:5 22:-0.030795 23:-1.231818 26:-0.6775 27:-1.231818 29:0.019806 30:0.010824 31:-21.97899 33:15 34:1 
19.18205186465618 1:-25.1 4:25 7:10 10:1.458333 11:0.416667 12:1.875 14:25 16:10 22:-0.023241 23:-1.045833 26:-0.557778 27:-1.045833 29:0.018117 30:0.00991 31:-19.97899 33:16 34:2 
106.5908398741675 1:-22.6 4:26.666667 7:6.666667 10:1.515152 11:0.30303 12:2.121212 14:26.666667 16:6.666667 22:-0.022013 23:-1.027273 26:-0.484286 27:-1.027273 29:0.019684 30:0.010787 31:-17.47899 33:12 34:1 
90.87601676924541 1:-19.6 4:9.090909 10:1.652893 11:0.413223 12:1.652893 14:9.090909 22:-0.0245 23:-0.890909 26:-0.539 27:-0.890909 29:0.019621 30:0.010767 31:-14.47899 33:8 34:1 
65.40577819560406 1:-13.7 4:5.555556 10:0.757576 11:0.252525 12:1.515152 14:5.555556 22:-0.018682 23:-0.622727 26:-0.411 27:-0.622727 29:0.019487 30:0.010725 31:-8.57899 33:9 34:1 
35.40362214143082 1:-18.6 7:7.142857 10:0.974026 11:0.324675 12:1.948052 16:7.142857 22:-0.019727 23:-0.845455 26:-0.434 27:-0.845455 29:0.019563 30:0.010749 31:-13.47899 33:9 34:1 
90.2555849892309 1:-28.7 4:19.047619 10:2.040816 11:0.226757 12:1.814059 14:19.047619 22:-0.035875 23:-1.366667 26:-0.753375 27:-1.366667 29:0.020877 30:0.011377 31:-23.57899 33:17 34:1 
37.28734731859383 1:-29.2 4:4.761905 7:4.761905 10:0.828157 11:0.207039 12:2.070393 14:4.761905 16:4.761905 22:-0.026661 23:-1.269565 26:-0.6132 27:-1.269565 29:0.0191 30:0.010399 31:-24.07899 33:14 34:1 
22.62584016378382 1:-26.6 4:12.5 7:12.5 10:1.086957 11:0.543478 12:2.173913 14:12.5 16:12.5 22:-0.02313 23:-1.156522 26:-0.532 27:-1.156522 29:0.018939 30:0.010351 31:-21.47899 33:12 34:2 
6.711076900825715 1:-17.5 4:20 7:13.333333 10:1.269841 11:0.634921 12:1.587302 14:20 16:13.333333 22:-0.025 23:-0.833333 26:-0.525 27:-0.833333 29:0.020472 30:0.011254 31:-12.37899 33:9 34:2 
18.41264884233917 1:-28.7 4:15 7:20 10:1.25 11:1 12:2 14:15 16:20 22:-0.035875 23:-1.435 26:-0.7175 27:-1.435 29:0.021857 30:0.011927 31:-23.57899 33:13 34:4 
92.04703759015257 1:-19.8 4:14.285714 7:4.761905 10:1.587302 11:0.226757 12:2.040816 14:14.285714 16:4.761905 22:-0.022 23:-0.942857 26:-0.462 27:-0.942857 29:0.020527 30:0.011271 31:-14.67899 33:16 34:1 
89.5715060959882 1:-31.6 4:5.263158 10:1.435407 11:0.239234 12:2.15311 14:5.263158 22:-0.030323 23:-1.436364 26:-0.667111 27:-1.436364 29:0.019895 30:0.01085 31:-26.47899 33:15 34:1 
90.34277922207293 1:-24.8 4:15.789474 7:10.526316 10:1.372998 11:0.915332 12:1.601831 14:15.789474 16:10.526316 22:-0.029267 23:-1.078261 26:-0.673143 27:-1.078261 29:0.018858 30:0.010327 31:-19.67899 33:13 34:4 
21.05066962096437 1:-17.5 4:20 7:13.333333 10:1.269841 11:0.634921 12:1.587302 14:20 16:13.333333 22:-0.025 23:-0.833333 26:-0.525 27:-0.833333 29:0.020472 30:0.011254 31:-12.37899 33:9 34:2 
117.8156763554889 1:-19.6 4:11.764706 10:1.40056 12:1.680672 14:11.764706 22:-0.026444 23:-0.933333 26:-0.555333 27:-0.933333 29:0.020495 30:0.011261 31:-14.47899 33:11 
-50.43125437784472 1:-25.4 4:12.5 10:1.704545 11:0.284091 12:2.272727 14:12.5 22:-0.023091 23:-1.154545 26:-0.508 27:-1.154545 29:-0.019789 30:0.010819 31:-22.498825 33:14 34:1 
-194.6071057504977 1:-24.2 4:17.647059 7:11.764706 10:1.470588 11:0.882353 12:2.058824 14:17.647059 16:11.764706 22:-0.029386 23:-1.21 26:-0.587714 27:-1.21 29:-0.021709 30:0.011883 31:-21.298825 33:12 34:3 
-1.424693627222917 1:-5.5 4:71.428571 10:3.571429 14:71.428571 23:-0.275 27:-0.275 29:-0.021289 30:0.011751 31:-2.598825 33:5 
-10.3428593222051 1:-46 4:4.545455 7:13.636364 10:1.652893 11:0.619835 12:2.272727 14:4.545455 16:13.636364 22:-0.041818 23:-2.090909 26:-0.92 27:-2.090909 29:-0.020393 30:0.01099 31:-43.098825 33:19 34:3 
-166.6540187004366 1:-20 4:10 7:5 10:1.428571 11:0.47619 12:1.666667 14:10 16:5 22:-0.027211 23:-0.952381 26:-0.571429 27:-0.952381 29:-0.020549 30:0.011278 31:-17.098825 33:13 34:2 
-72.20323460764946 1:-27.3 4:15 10:1.136364 12:2.045455 14:15 22:-0.027576 23:-1.240909 26:-0.606667 27:-1.240909 29:-0.019857 30:0.010839 31:-24.398825 33:14 
-58.27365778384202 1:-29.4 10:0.952381 11:0.238095 12:2.142857 22:-0.031111 23:-1.4 26:-0.653333 27:-1.4 29:-0.020865 30:0.011373 31:-26.498825 33:13 34:1 
-86.6125158204988 1:-27.9 4:19.047619 10:1.731602 12:2.380952 14:19.047619 22:-0.024211 23:-1.268182 26:-0.532636 27:-1.268182 29:-0.019956 30:0.010868 31:-24.998825 33:19 
-186.1781457842925 1:-15.8 4:6.25 10:1.190476 12:1.488095 14:6.25 22:-0.024076 23:-0.752381 26:-0.5056 27:-0.752381 29:-0.020419 30:0.011237 31:-12.898825 33:9 
-127.7587271519717 1:-18 4:25 7:5 10:1.666667 11:0.238095 12:1.428571 14:25 16:5 22:-0.028571 23:-0.857143 26:-0.6 27:-0.857143 29:-0.020487 30:0.011259 31:-15.098825 33:13 34:1 
-8.339873769100864 1:-23.3 4:6.25 7:6.25 10:0.892857 11:0.297619 12:2.380952 14:6.25 16:6.25 22:-0.02219 23:-1.109524 26:-0.466 27:-1.109524 29:-0.02071 30:0.011327 31:-20.398825 33:11 34:1 
