svm_type c_svc
kernel_type rbf
gamma 0.000488
nr_class 2
total_sv 129
rho 2.4883
label 1 2
nr_sv 78 51
SV
256 1:-17.4 2:18 3:33.333333 4:22.222222 5:16.666667 7:11.111111 8:16.666667 9:16.666667 10:1.767677 11:0.505051 12:1.515152 13:4 14:7.407407 15:5.555556 16:3.703704 18:5.555556 19:5.555556 20:2 21:4 22:-0.023727 23:-0.263636 24:-0.395455 25:-0.522 26:-0.522 27:-0.790909 28:0.818182 29:-0.059798 30:0.010756 31:1.918649 32:3 33:13 34:2 
256 1:-24.9 2:19 3:36.842105 4:21.052632 5:15.789474 6:5.263158 7:5.263158 8:21.052632 9:15.789474 10:1.754386 11:0.501253 12:1.754386 13:5.333333 14:7.017544 15:5.263158 16:1.754386 17:1.754386 18:7.017544 19:5.263158 20:2 21:2 22:-0.032184 23:-0.395238 24:-0.592857 25:-0.675857 26:-0.675857 27:-1.185714 28:0.904762 29:-0.062984 30:0.011325 32:3 33:14 34:2 
164.5407758486629 1:-31.4 2:23 3:47.826087 4:13.043478 5:13.043478 7:8.695652 8:17.391304 9:30.434783 10:1.134216 11:0.378072 12:2.079395 13:5.333333 14:4.347826 15:4.347826 16:2.898551 18:5.797101 19:10.144928 22:-0.028545 23:-0.455072 25:-0.656545 26:-0.656545 27:-1.365217 28:1 29:-0.05804 30:0.010422 31:-1.662829 32:4 33:17 34:2 
193.3858910252134 1:-26.8 2:21 3:33.333333 4:14.285714 5:38.095238 6:4.761905 8:14.285714 9:19.047619 10:2.494331 11:0.226757 12:1.587302 13:6.333333 14:4.761905 15:12.698413 17:1.587302 18:4.761905 19:6.349206 22:-0.038286 23:-0.425397 25:-0.804 26:-0.804 27:-1.27619 28:1 29:-0.063082 30:0.011341 31:-0.486058 32:2 33:18 34:1 
152.7812700473077 1:-27.7 2:19 3:42.105263 4:21.052632 5:10.526316 6:10.526316 7:10.526316 8:21.052632 9:21.052632 10:1.435407 11:0.956938 12:1.913876 13:6 14:7.017544 15:3.508772 16:3.508772 17:3.508772 18:7.017544 19:7.017544 20:3 21:3 22:-0.029903 23:-0.419697 24:-0.419697 25:-0.657875 26:-0.657875 27:-1.259091 28:0.863636 29:-0.060257 30:0.010832 31:-0.716296 32:1 33:14 34:4 
5.95255035316616 1:-24.6 2:19 3:36.842105 4:21.052632 5:21.052632 7:10.526316 8:21.052632 9:15.789474 10:2.005013 11:0.501253 12:1.754386 13:5.666667 14:7.017544 15:7.017544 16:3.508772 18:7.017544 19:5.263158 20:1 21:2 22:-0.031796 23:-0.390476 24:-1.171429 25:-0.667714 26:-0.667714 27:-1.171429 28:0.904762 29:-0.063019 30:0.011331 31:0.076746 32:2 33:15 34:2 
256 1:-25.5 2:17 3:52.941176 4:17.647059 5:11.764706 7:5.882353 8:35.294118 9:17.647059 10:1.278772 11:0.255754 12:2.30179 13:5 14:5.882353 15:3.921569 16:1.960784 18:11.764706 19:5.882353 20:2 21:6 22:-0.020942 23:-0.369565 24:-0.554348 25:-0.481667 26:-0.481667 27:-1.108696 28:0.73913 29:-0.057497 30:0.010339 31:-0.153492 32:2 33:14 34:1 
215.9288211390381 1:-22.3 2:20 3:45 4:25 5:10 8:20 9:25 10:1.590909 12:2.045455 13:4.333333 14:8.333333 15:3.333333 18:6.666667 19:8.333333 20:1 21:2 22:-0.022525 23:-0.337879 24:-1.013636 25:-0.495556 26:-0.495556 27:-1.013636 28:0.909091 29:-0.060145 30:0.010814 31:0.665132 32:4 33:16 
108.6846153651115 1:-23.4 2:23 3:34.782609 4:21.73913 5:21.73913 6:8.695652 7:4.347826 8:13.043478 9:21.73913 10:1.890359 11:0.567108 12:1.512287 13:6.333333 14:7.246377 15:7.246377 16:1.449275 17:2.898551 18:4.347826 19:7.246377 22:-0.02925 23:-0.33913 25:-0.67275 26:-0.67275 27:-1.017391 28:1 29:-0.057497 30:0.010339 31:0.38373 32:2 33:18 34:3 
52.56158060009241 1:-24.8 2:22 3:36.363636 4:4.545455 5:31.818182 6:4.545455 7:4.545455 8:18.181818 9:18.181818 10:1.652893 11:0.413223 12:1.652893 13:6 14:1.515152 15:10.606061 16:1.515152 17:1.515152 18:6.060606 19:6.060606 22:-0.031 23:-0.375758 25:-0.682 26:-0.682 27:-1.127273 28:1 29:-0.06028 30:0.010836 31:0.025582 32:4 33:16 34:2 
113.6278248103996 1:-30.6 2:21 3:47.619048 4:9.52381 5:9.52381 7:23.809524 8:14.285714 9:33.333333 10:0.907029 11:1.133787 12:2.267574 13:6.333333 14:3.174603 15:3.174603 16:7.936508 18:4.761905 19:11.111111 22:-0.0306 23:-0.485714 25:-0.6426 26:-0.6426 27:-1.457143 28:1 29:-0.063442 30:0.011396 31:-1.458173 32:2 33:14 34:5 
4.053650191805167 1:-17.6 2:21 3:28.571429 4:4.761905 5:23.809524 6:4.761905 7:23.809524 8:9.52381 9:19.047619 10:1.360544 11:1.360544 12:1.360544 13:5 14:1.587302 15:7.936508 16:7.936508 17:1.587302 18:3.174603 19:6.349206 22:-0.029333 23:-0.279365 25:-0.616 26:-0.616 27:-0.838095 28:1 29:-0.062698 30:0.011278 31:1.867485 32:3 33:12 34:6 
61.1954090662418 1:-18.2 2:17 3:41.176471 4:17.647059 5:17.647059 6:11.764706 7:5.882353 8:11.764706 9:29.411765 10:1.534527 11:0.767263 12:1.790281 13:4.666667 14:5.882353 15:5.882353 16:1.960784 17:3.921569 18:3.921569 19:9.803922 20:1 21:6 22:-0.019217 23:-0.263768 24:-0.791304 25:-0.442 26:-0.442 27:-0.791304 28:0.73913 29:-0.057196 30:0.010288 31:1.713993 32:1 33:13 34:3 
19.13329966783779 1:-21.8 2:21 3:19.047619 4:14.285714 5:38.095238 6:4.761905 7:14.285714 9:19.047619 10:2.380952 11:0.865801 12:0.865801 13:6.333333 14:4.761905 15:12.698413 16:4.761905 17:1.587302 19:6.349206 20:1 21:1 22:-0.052023 23:-0.330303 24:-0.990909 25:-1.1445 26:-1.1445 27:-0.990909 28:0.954545 29:-0.059827 30:0.010761 31:0.793042 32:2 33:15 34:4 
256 1:-24.1 2:18 3:44.444444 4:11.111111 5:22.222222 6:5.555556 7:11.111111 8:11.111111 9:33.333333 10:1.515152 11:0.757576 12:2.020202 13:5.666667 14:3.703704 15:7.407407 16:3.703704 17:1.851852 18:3.703704 19:11.111111 20:1 21:4 22:-0.024648 23:-0.365152 24:-1.095455 25:-0.54225 26:-0.54225 27:-1.095455 28:0.818182 29:-0.060094 30:0.010806 31:0.204656 32:1 33:14 34:3 
246.5951213420311 1:-28.1 2:20 3:50 4:20 5:15 7:5 8:30 9:20 10:1.590909 11:0.227273 12:2.272727 13:6 14:6.666667 15:5 16:1.666667 18:10 19:6.666667 20:1 21:2 22:-0.025545 23:-0.425758 24:-1.277273 25:-0.562 26:-0.562 27:-1.277273 28:0.909091 29:-0.06039 30:0.010853 31:-0.818624 32:2 33:17 34:1 
227.5236344432132 1:-21.7 2:17 3:41.176471 4:11.764706 5:11.764706 6:17.647059 8:23.529412 9:17.647059 10:1.176471 11:0.882353 12:2.058824 13:4.666667 14:3.921569 15:3.921569 17:5.882353 18:7.843137 19:5.882353 20:2 21:3 22:-0.02635 23:-0.361667 24:-0.5425 25:-0.527 26:-0.527 27:-1.085 28:0.85 29:-0.065931 30:0.011858 31:0.818624 32:3 33:11 34:3 
209.1960737349581 1:-22.1 2:21 3:33.333333 4:19.047619 5:23.809524 6:4.761905 8:14.285714 9:19.047619 10:1.948052 11:0.21645 12:1.515152 13:5 14:6.349206 15:7.936508 17:1.587302 18:4.761905 19:6.349206 20:1 21:1 22:-0.030136 23:-0.334848 24:-1.004545 25:-0.663 26:-0.663 27:-1.004545 28:0.954545 29:-0.059817 30:0.01076 31:0.716296 32:4 33:16 34:1 
170.5518741727142 1:-27.6 2:21 3:52.380952 4:14.285714 5:9.52381 7:19.047619 8:38.095238 9:14.285714 10:1.035197 11:0.828157 12:2.277433 13:5.666667 14:4.761905 15:3.174603 16:6.349206 18:12.698413 19:4.761905 20:1 21:2 22:-0.022909 23:-0.4 24:-1.2 25:-0.526909 26:-0.526909 27:-1.2 28:0.913043 29:-0.057828 30:0.010391 31:-0.690714 32:1 33:16 34:4 
256 1:-20.6 2:20 3:35 4:15 5:25 7:5 8:15 9:20 10:1.904762 11:0.238095 12:1.666667 13:4.666667 14:5 15:8.333333 16:1.666667 18:5 19:6.666667 20:1 21:1 22:-0.028027 23:-0.326984 24:-0.980952 25:-0.588571 26:-0.588571 27:-0.980952 28:0.952381 29:-0.06273 30:0.011283 31:1.100026 32:4 33:15 34:1 
31.20682303959142 1:-25.9 2:20 3:50 4:10 5:5 6:5 7:10 8:30 9:20 10:0.681818 11:0.681818 12:2.272727 13:5.333333 14:3.333333 15:1.666667 16:3.333333 17:1.666667 18:10 19:6.666667 20:1 21:2 22:-0.023545 23:-0.392424 24:-1.177273 25:-0.518 26:-0.518 27:-1.177273 28:0.909091 29:-0.06016 30:0.010817 31:-0.25582 32:4 33:13 34:3 
125.8004443748968 1:-19.3 2:14 3:35.714286 4:21.428571 5:14.285714 6:7.142857 7:7.142857 8:14.285714 9:21.428571 10:1.623377 11:0.649351 12:1.623377 13:4 14:7.142857 15:4.761905 16:2.380952 17:2.380952 18:4.761905 19:7.142857 20:1 21:8 22:-0.024564 23:-0.292424 24:-0.877273 25:-0.5404 26:-0.5404 27:-0.877273 28:0.636364 29:-0.059961 30:0.010784 31:1.432591 32:2 33:10 34:2 
94.61245074826816 1:-23 2:25 3:48 4:8 5:4 6:4 7:16 8:40 9:8 10:0.571429 11:0.952381 12:2.285714 13:4.666667 14:2.666667 15:1.333333 16:5.333333 17:1.333333 18:13.333333 19:2.666667 21:-4 22:-0.022817 23:-0.365079 25:-0.479167 26:-0.479167 27:-1.095238 28:1.190476 29:-0.063077 30:0.01134 31:0.486058 32:5 33:15 34:5 
14.68352614496828 1:-23.8 2:16 3:50 4:18.75 5:12.5 7:12.5 8:12.5 9:37.5 10:1.358696 11:0.543478 12:2.173913 13:5 14:6.25 15:4.166667 16:4.166667 18:4.166667 19:12.5 20:3 21:7 22:-0.020696 23:-0.344928 24:-0.344928 25:-0.476 26:-0.476 27:-1.034783 28:0.695652 29:-0.057358 30:0.010316 31:0.281402 32:1 33:13 34:2 
8.331754479350382 1:-25.8 2:19 3:36.842105 4:26.315789 5:15.789474 6:5.263158 7:5.263158 8:31.578947 9:5.263158 10:1.830664 11:0.457666 12:1.601831 13:4.666667 14:8.77193 15:5.263158 16:1.754386 17:1.754386 18:10.526316 19:1.754386 21:4 22:-0.030447 23:-0.373913 25:-0.700286 26:-0.700286 27:-1.121739 28:0.826087 29:-0.057486 30:0.010337 31:-0.230238 32:2 33:15 34:2 
29.40536472110385 1:-18 2:19 3:31.578947 4:5.263158 5:21.052632 6:10.526316 7:5.263158 8:21.052632 9:10.526316 10:1.196172 11:0.717703 12:1.435407 13:4.666667 14:1.754386 15:7.017544 16:1.754386 17:3.508772 18:7.017544 19:3.508772 20:1 21:3 22:-0.025909 23:-0.272727 24:-0.818182 25:-0.57 26:-0.57 27:-0.818182 28:0.863636 29:-0.059882 30:0.010771 31:1.765157 32:5 33:11 34:3 
256 1:-32.2 2:20 3:40 4:10 5:15 6:5 7:15 8:20 9:20 10:1.190476 11:0.952381 12:1.904762 13:5.666667 14:3.333333 15:5 16:5 17:1.666667 18:6.666667 19:6.666667 20:1 21:1 22:-0.038333 23:-0.511111 24:-1.533333 25:-0.805 26:-0.805 27:-1.533333 28:0.952381 29:-0.063257 30:0.011368 31:-1.867485 32:3 33:13 34:4 
7.533151190431772 1:-22.7 2:20 3:20 4:20 5:25 6:20 7:15 9:20 10:2.045455 11:1.590909 12:0.909091 13:6.666667 14:6.666667 15:8.333333 16:5 17:6.666667 19:6.666667 20:2 21:2 22:-0.051591 23:-0.343939 24:-0.515909 25:-1.135 26:-1.135 27:-1.031818 28:0.909091 29:-0.059887 30:0.010772 31:0.562804 33:13 34:7 
21.55930527607465 1:-22.4 2:22 3:31.818182 4:31.818182 5:13.636364 7:9.090909 8:18.181818 9:13.636364 10:1.976285 11:0.395257 12:1.383399 13:5.666667 14:10.606061 15:4.545455 16:3.030303 18:6.060606 19:4.545455 20:1 21:1 22:-0.030609 23:-0.324638 24:-0.973913 25:-0.704 26:-0.704 27:-0.973913 28:0.956522 29:-0.057292 30:0.010305 31:0.63955 32:3 33:17 34:2 
94.95607441145492 1:-24.2 2:21 3:28.571429 4:23.809524 5:14.285714 6:4.761905 8:9.52381 9:19.047619 10:1.656315 11:0.207039 12:1.242236 13:5 14:7.936508 15:4.761905 17:1.587302 18:3.174603 19:6.349206 20:1 21:2 22:-0.036826 23:-0.350725 24:-1.052174 25:-0.847 26:-0.847 27:-1.052174 28:0.913043 29:-0.057435 30:0.010328 31:0.179074 32:6 33:14 34:1 
216.4756983090153 1:-24.8 2:21 3:23.809524 4:19.047619 5:23.809524 6:14.285714 7:4.761905 8:9.52381 9:14.285714 10:1.863354 11:0.828157 12:1.035197 13:6 14:6.349206 15:7.936508 16:1.587302 17:4.761905 18:3.174603 19:4.761905 20:1 21:2 22:-0.045287 23:-0.35942 24:-1.078261 25:-1.0416 26:-1.0416 27:-1.078261 28:0.913043 29:-0.057671 30:0.010366 31:0.025582 32:3 33:14 34:4 
149.6198449064166 1:-25.9 2:20 3:50 4:10 5:20 6:10 8:30 9:20 10:1.428571 11:0.47619 12:2.380952 13:5 14:3.333333 15:6.666667 17:3.333333 18:10 19:6.666667 20:1 21:1 22:-0.024667 23:-0.411111 24:-1.233333 25:-0.518 26:-0.518 27:-1.233333 28:0.952381 29:-0.062862 30:0.011305 31:-0.25582 32:2 33:16 34:2 
11.13370237793561 1:-22.4 2:22 3:22.727273 4:27.272727 5:13.636364 6:22.727273 7:9.090909 9:22.727273 10:1.859504 11:1.446281 12:1.033058 13:7 14:9.090909 15:4.545455 16:3.030303 17:7.575758 19:7.575758 22:-0.0448 23:-0.339394 25:-0.9856 26:-0.9856 27:-1.018182 28:1 29:-0.060025 30:0.010795 31:0.63955 32:1 33:14 34:7 
256 1:-22.2 2:21 3:42.857143 4:14.285714 5:9.52381 6:4.761905 7:9.52381 8:19.047619 9:23.809524 10:1.133787 11:0.680272 12:2.040816 13:4.666667 14:4.761905 15:3.174603 16:3.174603 17:1.587302 18:6.349206 19:7.936508 22:-0.024667 23:-0.352381 25:-0.518 26:-0.518 27:-1.057143 28:1 29:-0.062915 30:0.011314 31:0.690714 32:4 33:14 34:3 
113.4828674388154 1:-26 2:16 3:31.25 4:25 5:25 7:6.25 8:12.5 9:18.75 10:2.272727 11:0.284091 12:1.420455 13:4.666667 14:8.333333 15:8.333333 16:2.083333 18:4.166667 19:6.25 21:6 22:-0.037818 23:-0.393939 25:-0.832 26:-0.832 27:-1.181818 28:0.727273 29:-0.060044 30:0.010798 31:-0.281402 32:2 33:13 34:1 
256 1:-28.6 2:22 3:40.909091 4:18.181818 5:13.636364 6:9.090909 7:4.545455 8:31.818182 9:9.090909 10:1.446281 11:0.619835 12:1.859504 13:6.333333 14:6.060606 15:4.545455 16:1.515152 17:3.030303 18:10.606061 19:3.030303 22:-0.031778 23:-0.433333 25:-0.699111 26:-0.699111 27:-1.3 28:1 29:-0.060272 30:0.010834 31:-0.946534 32:3 33:16 34:3 
86.70395758435581 1:-25.2 2:21 3:38.095238 4:14.285714 5:14.285714 6:4.761905 7:14.285714 8:33.333333 9:4.761905 10:1.242236 11:0.828157 12:1.656315 13:5.333333 14:4.761905 15:4.761905 16:4.761905 17:1.587302 18:11.111111 19:1.587302 20:1 21:2 22:-0.028761 23:-0.365217 24:-1.095652 25:-0.6615 26:-0.6615 27:-1.095652 28:0.913043 29:-0.057598 30:0.010355 31:-0.076746 32:3 33:14 34:4 
93.58657274265705 1:-25.8 2:22 3:40.909091 4:13.636364 5:31.818182 7:4.545455 8:22.727273 9:18.181818 10:2.066116 11:0.206612 12:1.859504 13:5.666667 14:4.545455 15:10.606061 16:1.515152 18:7.575758 19:6.060606 22:-0.028667 23:-0.390909 25:-0.630667 26:-0.630667 27:-1.172727 28:1 29:-0.060343 30:0.010845 31:-0.230238 32:2 33:19 34:1 
67.6361941774189 1:-23.8 2:23 3:26.086957 4:26.086957 5:17.391304 6:8.695652 7:8.695652 8:13.043478 9:13.043478 10:1.890359 11:0.756144 12:1.134216 13:5.666667 14:8.695652 15:5.797101 16:2.898551 17:2.898551 18:4.347826 19:4.347826 22:-0.039667 23:-0.344928 25:-0.912333 26:-0.912333 27:-1.034783 28:1 29:-0.057537 30:0.010345 31:0.281402 32:3 33:16 34:4 
188.6318862359539 1:-17.7 2:20 3:30 4:5 5:25 6:5 7:15 8:15 9:15 10:1.428571 11:0.952381 12:1.428571 13:4.333333 14:1.666667 15:8.333333 16:5 17:1.666667 18:5 19:5 21:1 22:-0.028095 23:-0.280952 25:-0.59 26:-0.59 27:-0.842857 28:0.952381 29:-0.062697 30:0.011277 31:1.841903 32:4 33:12 34:4 
50.94541295708795 1:-24.8 2:21 3:38.095238 4:23.809524 5:19.047619 6:4.761905 7:9.52381 9:38.095238 10:1.948052 11:0.649351 12:1.731602 13:5.666667 14:7.936508 15:6.349206 16:3.174603 17:1.587302 19:12.698413 20:1 21:1 22:-0.029591 23:-0.375758 24:-1.127273 25:-0.651 26:-0.651 27:-1.127273 28:0.954545 29:-0.05995 30:0.010782 31:0.025582 32:1 33:17 34:3 
80.13808305780923 1:-28.8 2:17 3:52.941176 4:17.647059 5:11.764706 6:11.764706 8:17.647059 9:35.294118 10:1.336898 11:0.534759 12:2.406417 13:5.333333 14:5.882353 15:3.921569 17:3.921569 18:5.882353 19:11.764706 21:5 22:-0.024727 23:-0.436364 25:-0.544 26:-0.544 27:-1.309091 28:0.772727 29:-0.060316 30:0.010841 31:-0.997698 32:1 33:14 34:2 
154.3076165402596 1:-25.4 2:22 3:36.363636 4:18.181818 5:9.090909 6:9.090909 7:9.090909 8:27.272727 9:9.090909 10:1.239669 11:0.826446 12:1.652893 13:6 14:6.060606 15:3.030303 16:3.030303 17:3.030303 18:9.090909 19:3.030303 22:-0.03175 23:-0.384848 25:-0.6985 26:-0.6985 27:-1.154545 28:1 29:-0.060153 30:0.010815 31:-0.12791 32:4 33:14 34:4 
40.25118620481133 1:-23.8 2:20 3:45 5:10 7:35 8:25 9:20 10:0.454545 11:1.590909 12:2.045455 13:5.666667 15:3.333333 16:11.666667 18:8.333333 19:6.666667 20:2 21:2 22:-0.02404 23:-0.360606 24:-0.540909 25:-0.528889 26:-0.528889 27:-1.081818 28:0.909091 29:-0.060039 30:0.010797 31:0.281402 32:2 33:11 34:7 
35.46724317000872 1:-25.4 2:19 3:47.368421 4:15.789474 5:15.789474 7:10.526316 8:15.789474 9:31.578947 10:1.372998 11:0.457666 12:2.059497 13:5.666667 14:5.263158 15:5.263158 16:3.508772 18:5.263158 19:10.526316 20:2 21:4 22:-0.023314 23:-0.368116 24:-0.552174 25:-0.536222 26:-0.536222 27:-1.104348 28:0.826087 29:-0.057495 30:0.010338 31:-0.12791 32:2 33:15 34:2 
219.3989200537017 1:-23.1 2:20 3:45 4:5 5:10 7:10 8:20 9:25 10:0.681818 11:0.454545 12:2.045455 13:4.666667 14:1.666667 15:3.333333 16:3.333333 18:6.666667 19:8.333333 20:1 21:2 22:-0.023333 23:-0.35 24:-1.05 25:-0.513333 26:-0.513333 27:-1.05 28:0.909091 29:-0.060055 30:0.010799 31:0.460476 32:6 33:12 34:2 
201.3485418877382 1:-25.8 2:22 3:36.363636 4:9.090909 5:22.727273 6:4.545455 7:22.727273 8:22.727273 9:13.636364 10:1.446281 11:1.239669 12:1.652893 13:7 14:3.030303 15:7.575758 16:7.575758 17:1.515152 18:7.575758 19:4.545455 22:-0.03225 23:-0.390909 25:-0.7095 26:-0.7095 27:-1.172727 28:1 29:-0.060152 30:0.010815 31:-0.230238 32:1 33:15 34:6 
9.206322095494309 1:-24.5 2:20 3:45 4:15 5:20 7:5 8:10 9:35 10:1.590909 11:0.227273 12:2.045455 13:5 14:5 15:6.666667 16:1.666667 18:3.333333 19:11.666667 20:1 21:2 22:-0.024747 23:-0.371212 24:-1.113636 25:-0.544444 26:-0.544444 27:-1.113636 28:0.909091 29:-0.060085 30:0.010805 31:0.102328 32:3 33:16 34:1 
5.661038496396917 1:-26.3 2:15 3:40 4:33.333333 5:6.666667 6:6.666667 7:13.333333 8:13.333333 9:26.666667 10:1.818182 11:0.909091 12:1.818182 13:5 14:11.111111 15:2.222222 16:4.444444 17:2.222222 18:4.444444 19:8.888889 21:7 22:-0.029886 23:-0.398485 25:-0.6575 26:-0.6575 27:-1.195455 28:0.681818 29:-0.060394 30:0.010853 31:-0.358148 33:12 34:3 
163.8878689463943 1:-21.8 2:18 3:27.777778 4:16.666667 5:33.333333 6:5.555556 7:11.111111 8:22.222222 9:5.555556 10:2.173913 11:0.724638 12:1.207729 13:5.666667 14:5.555556 15:11.111111 16:3.703704 17:1.851852 18:7.407407 19:1.851852 20:2 21:5 22:-0.034122 23:-0.315942 24:-0.473913 25:-0.7848 26:-0.7848 27:-0.947826 28:0.782609 29:-0.057411 30:0.010325 31:0.793042 32:1 33:14 34:3 
53.32413815046554 1:-23.4 2:22 3:40.909091 5:9.090909 7:27.272727 9:40.909091 10:0.413223 11:1.239669 12:1.859504 13:5.333333 15:3.030303 16:9.090909 19:13.636364 22:-0.026 23:-0.354545 25:-0.572 26:-0.572 27:-1.063636 28:1 29:-0.060194 30:0.010822 31:0.38373 32:5 33:11 34:6 
256 1:-21.8 2:20 3:40 4:5 5:25 7:10 8:15 9:25 10:1.428571 11:0.47619 12:1.904762 13:5.333333 14:1.666667 15:8.333333 16:3.333333 18:5 19:8.333333 20:1 21:1 22:-0.025952 23:-0.346032 24:-1.038095 25:-0.545 26:-0.545 27:-1.038095 28:0.952381 29:-0.062867 30:0.011306 31:0.793042 32:4 33:14 34:2 
56.32804933980619 1:-25.1 2:20 3:30 4:35 5:15 6:10 7:5 8:10 9:20 10:2.272727 11:0.681818 12:1.363636 13:6.333333 14:11.666667 15:5 16:1.666667 17:3.333333 18:3.333333 19:6.666667 20:1 21:2 22:-0.03803 23:-0.380303 24:-1.140909 25:-0.836667 26:-0.836667 27:-1.140909 28:0.909091 29:-0.060096 30:0.010806 31:-0.051164 32:1 33:16 34:3 
54.04226130452132 1:-30.1 2:23 3:47.826087 4:17.391304 5:4.347826 7:8.695652 8:34.782609 9:13.043478 10:0.905797 11:0.362319 12:1.992754 13:5.666667 14:5.797101 15:1.449275 16:2.898551 18:11.594203 19:4.347826 20:1 21:1 22:-0.026223 23:-0.418056 24:-1.254167 25:-0.629364 26:-0.629364 27:-1.254167 28:0.958333 29:-0.055342 30:0.009946 31:-1.330263 32:5 33:16 34:2 
124.4123242679942 1:-27.9 2:22 3:31.818182 4:9.090909 5:13.636364 6:9.090909 7:13.636364 8:9.090909 9:22.727273 10:0.94697 11:0.94697 12:1.325758 13:4.666667 14:3.030303 15:4.545455 16:4.545455 17:3.030303 18:3.030303 19:7.575758 21:2 22:-0.036536 23:-0.3875 25:-0.876857 26:-0.876857 27:-1.1625 28:0.916667 29:-0.055234 30:0.009929 31:-0.76746 32:5 33:12 34:5 
256 1:-28.4 2:22 3:36.363636 4:13.636364 5:13.636364 6:9.090909 7:18.181818 8:18.181818 9:18.181818 10:1.239669 11:1.239669 12:1.652893 13:6.666667 14:4.545455 15:4.545455 16:6.060606 17:3.030303 18:6.060606 19:6.060606 22:-0.0355 23:-0.430303 25:-0.781 26:-0.781 27:-1.290909 28:1 29:-0.06033 30:0.010843 31:-0.89537 32:2 33:14 34:6 
144.4327886613532 1:-29.4 2:17 3:47.058824 4:11.764706 5:5.882353 7:17.647059 8:35.294118 9:11.764706 10:0.767263 11:0.767263 12:2.046036 13:4.666667 14:3.921569 15:1.960784 16:5.882353 18:11.764706 19:3.921569 21:6 22:-0.027163 23:-0.426087 25:-0.62475 26:-0.62475 27:-1.278261 28:0.73913 29:-0.057718 30:0.010374 31:-1.15119 32:3 33:11 34:3 
60.36836439218504 1:-24.2 2:20 3:45 4:10 5:20 7:20 8:10 9:35 10:1.304348 11:0.869565 12:1.956522 13:5.333333 14:3.333333 15:6.666667 16:6.666667 18:3.333333 19:11.666667 20:1 21:3 22:-0.023382 23:-0.350725 24:-1.052174 25:-0.537778 26:-0.537778 27:-1.052174 28:0.869565 29:-0.057497 30:0.010339 31:0.179074 32:1 33:15 34:4 
175.6897900826587 1:-23.1 2:22 3:31.818182 4:13.636364 5:22.727273 6:4.545455 7:18.181818 9:31.818182 10:1.652893 11:1.033058 12:1.446281 13:6.666667 14:4.545455 15:7.575758 16:6.060606 17:1.515152 19:10.606061 22:-0.033 23:-0.35 25:-0.726 26:-0.726 27:-1.05 28:1 29:-0.05994 30:0.01078 31:0.460476 32:2 33:15 34:5 
105.5168509026814 1:-32.3 2:21 3:52.380952 4:14.285714 5:9.52381 7:9.52381 8:28.571429 9:23.809524 10:1.035197 11:0.414079 12:2.277433 13:5.666667 14:4.761905 15:3.174603 16:3.174603 18:9.52381 19:7.936508 20:1 21:2 22:-0.02681 23:-0.468116 24:-1.404348 25:-0.616636 26:-0.616636 27:-1.404348 28:0.913043 29:-0.058315 30:0.010461 31:-1.893067 32:3 33:16 34:2 
13.35227743619714 1:-33.7 2:20 3:65 4:10 5:5 7:10 8:40 9:25 10:0.714286 11:0.47619 12:3.095238 13:5.333333 14:3.333333 15:1.666667 16:3.333333 18:13.333333 19:8.333333 20:1 21:1 22:-0.024689 23:-0.534921 24:-1.604762 25:-0.518462 26:-0.518462 27:-1.604762 28:0.952381 29:-0.063344 30:0.011381 31:-2.251215 32:2 33:16 34:2 
78.36568755952366 1:-24.1 2:22 3:36.363636 4:9.090909 5:18.181818 6:4.545455 7:13.636364 9:36.363636 10:1.239669 11:0.826446 12:1.652893 13:5.333333 14:3.030303 15:6.060606 16:4.545455 17:1.515152 19:12.121212 22:-0.030125 23:-0.365152 25:-0.66275 26:-0.66275 27:-1.095455 28:1 29:-0.060576 30:0.010881 31:0.204656 32:4 33:14 34:4 
2.850297577006539 1:-23.6 2:21 3:47.619048 4:9.52381 5:9.52381 7:14.285714 8:19.047619 9:28.571429 10:0.907029 11:0.680272 12:2.267574 13:4.666667 14:3.174603 15:3.174603 16:4.761905 18:6.349206 19:9.52381 22:-0.0236 23:-0.374603 25:-0.4956 26:-0.4956 27:-1.12381 28:1 29:-0.062853 30:0.011304 31:0.332566 32:4 33:14 34:3 
65.07873728940106 1:-25.3 2:19 3:36.842105 4:26.315789 5:15.789474 7:5.263158 8:5.263158 9:31.578947 10:1.913876 11:0.239234 12:1.674641 13:5.333333 14:8.77193 15:5.263158 16:1.754386 18:1.754386 19:10.526316 20:1 21:3 22:-0.031214 23:-0.383333 24:-1.15 25:-0.686714 26:-0.686714 27:-1.15 28:0.863636 29:-0.060054 30:0.010799 31:-0.102328 32:3 33:15 34:1 
248.1589293838994 1:-24.3 2:18 3:38.888889 4:11.111111 5:22.222222 6:11.111111 8:27.777778 9:11.111111 10:1.515152 11:0.505051 12:1.767677 13:4.666667 14:3.703704 15:7.407407 17:3.703704 18:9.259259 19:3.703704 20:1 21:4 22:-0.028403 23:-0.368182 24:-1.104545 25:-0.624857 26:-0.624857 27:-1.104545 28:0.818182 29:-0.059965 30:0.010785 31:0.153492 32:3 33:13 34:2 
186.4380896159989 1:-23.7 2:17 3:35.294118 4:11.764706 5:29.411765 6:5.882353 7:17.647059 8:23.529412 9:11.764706 10:1.871658 11:1.069519 12:1.604278 13:5.666667 14:3.921569 15:9.803922 16:5.882353 17:1.960784 18:7.843137 19:3.921569 21:5 22:-0.030523 23:-0.359091 25:-0.6715 26:-0.6715 27:-1.077273 28:0.772727 29:-0.059951 30:0.010782 31:0.306984 33:13 34:4 
86.92175363616897 1:-29.3 2:21 3:38.095238 4:19.047619 5:19.047619 6:9.52381 7:4.761905 8:28.571429 9:9.52381 10:1.731602 11:0.649351 12:1.731602 13:5.333333 14:6.349206 15:6.349206 16:1.587302 17:3.174603 18:9.52381 19:3.174603 20:1 21:1 22:-0.03496 23:-0.443939 24:-1.331818 25:-0.769125 26:-0.769125 27:-1.331818 28:0.954545 29:-0.060229 30:0.010828 31:-1.125608 32:2 33:16 34:3 
200.1876910919747 1:-30 2:18 3:50 4:16.666667 5:5.555556 6:11.111111 7:16.666667 8:22.222222 9:27.777778 10:1.010101 11:1.262626 12:2.272727 13:6 14:5.555556 15:1.851852 16:5.555556 17:3.703704 18:7.407407 19:9.259259 20:2 21:4 22:-0.027273 23:-0.454545 24:-0.681818 25:-0.6 26:-0.6 27:-1.363636 28:0.818182 29:-0.060245 30:0.01083 31:-1.304682 33:13 34:5 
256 1:-23.1 2:21 3:33.333333 4:19.047619 5:23.809524 6:14.285714 7:4.761905 8:23.809524 9:9.52381 10:2.040816 11:0.907029 12:1.587302 13:6.666667 14:6.349206 15:7.936508 16:1.587302 17:4.761905 18:7.936508 19:3.174603 22:-0.033 23:-0.366667 25:-0.693 26:-0.693 27:-1.1 28:1 29:-0.062859 30:0.011305 31:0.460476 32:1 33:16 34:4 
83.69888222097237 1:-26.5 2:22 3:31.818182 4:22.727273 5:22.727273 6:9.090909 8:9.090909 9:22.727273 10:2.066116 11:0.413223 12:1.446281 13:6 14:7.575758 15:7.575758 17:3.030303 18:3.030303 19:7.575758 22:-0.037857 23:-0.401515 25:-0.832857 26:-0.832857 27:-1.204545 28:1 29:-0.060293 30:0.010838 31:-0.409312 32:3 33:17 34:2 
76.81013304127924 1:-22 2:16 3:31.25 4:25 5:12.5 6:6.25 7:12.5 8:6.25 9:25 10:1.704545 11:0.852273 12:1.420455 13:4.666667 14:8.333333 15:4.166667 16:4.166667 17:2.083333 18:2.083333 19:8.333333 21:6 22:-0.032 23:-0.333333 25:-0.704 26:-0.704 27:-1 28:0.727273 29:-0.059911 30:0.010776 31:0.741878 32:2 33:11 34:3 
31.96791387161165 1:-29.2 2:22 3:54.545455 4:9.090909 5:9.090909 7:22.727273 8:36.363636 9:18.181818 10:0.790514 11:0.988142 12:2.371542 13:5.666667 14:3.030303 15:3.030303 16:7.575758 18:12.121212 19:6.060606 20:1 21:1 22:-0.023275 23:-0.423188 24:-1.269565 25:-0.535333 26:-0.535333 27:-1.269565 28:0.956522 29:-0.057698 30:0.010371 31:-1.100026 32:1 33:16 34:5 
256 1:-27.5 2:22 3:40.909091 4:22.727273 5:9.090909 6:4.545455 7:9.090909 8:18.181818 9:22.727273 10:1.446281 11:0.619835 12:1.859504 13:5.333333 14:7.575758 15:3.030303 16:3.030303 17:1.515152 18:6.060606 19:7.575758 22:-0.030556 23:-0.416667 25:-0.672222 26:-0.672222 27:-1.25 28:1 29:-0.060223 30:0.010827 31:-0.665132 32:3 33:16 34:3 
39.055478392179 1:-23.9 2:21 3:28.571429 4:14.285714 5:19.047619 6:9.52381 7:9.52381 8:23.809524 9:4.761905 10:1.449275 11:0.828157 12:1.242236 13:4.666667 14:4.761905 15:6.349206 16:3.174603 17:3.174603 18:7.936508 19:1.587302 20:1 21:2 22:-0.03637 23:-0.346377 24:-1.03913 25:-0.8365 26:-0.8365 27:-1.03913 28:0.913043 29:-0.057418 30:0.010326 31:0.25582 32:4 33:13 34:4 
63.14751476577353 1:-32 2:22 3:40.909091 4:13.636364 7:18.181818 8:36.363636 9:4.545455 10:0.619835 11:0.826446 12:1.859504 13:5 14:4.545455 16:6.060606 18:12.121212 19:1.515152 22:-0.035556 23:-0.484848 25:-0.782222 26:-0.782222 27:-1.454545 28:1 29:-0.060429 30:0.010859 31:-1.816321 32:6 33:12 34:4 
156.5483704855297 1:-26.8 2:22 3:40.909091 4:22.727273 5:18.181818 7:4.545455 8:27.272727 9:13.636364 10:1.778656 11:0.197628 12:1.778656 13:6.333333 14:7.575758 15:6.060606 16:1.515152 18:9.090909 19:4.545455 20:1 21:1 22:-0.028483 23:-0.388406 24:-1.165217 25:-0.655111 26:-0.655111 27:-1.165217 28:0.956522 29:-0.057704 30:0.010371 31:-0.486058 32:3 33:18 34:1 
147.8580987828604 1:-23.4 2:20 3:30 4:25 5:20 6:5 7:15 8:5 9:25 10:2.045455 11:0.909091 12:1.363636 13:6.333333 14:8.333333 15:6.666667 16:5 17:1.666667 18:1.666667 19:8.333333 20:1 21:2 22:-0.035455 23:-0.354545 24:-1.063636 25:-0.78 26:-0.78 27:-1.063636 28:0.909091 29:-0.060215 30:0.010825 31:0.38373 32:1 33:15 34:4 
19.65463777582137 1:-27.8 2:20 3:50 4:10 5:15 6:10 9:50 10:1.086957 11:0.434783 12:2.173913 13:5 14:3.333333 15:5 17:3.333333 19:16.666667 20:2 21:3 22:-0.024174 23:-0.402899 24:-0.604348 25:-0.556 26:-0.556 27:-1.208696 28:0.869565 29:-0.057738 30:0.010377 31:-0.741878 32:3 33:15 34:2 
-256 1:-22.7 2:18 3:33.333333 4:22.222222 5:22.222222 6:11.111111 7:5.555556 8:16.666667 9:16.666667 10:2.020202 11:0.757576 12:1.515152 13:5.333333 14:7.407407 15:7.407407 16:1.851852 17:3.703704 18:5.555556 19:5.555556 20:2 21:4 22:-0.030955 23:-0.343939 24:-0.515909 25:-0.681 26:-0.681 27:-1.031818 28:0.818182 29:-0.060038 30:0.010797 31:0.407674 32:2 33:13 34:3 
-17.9852118652022 1:-28.2 2:32 3:46.875 4:25 5:6.25 7:6.25 8:37.5 9:9.375 10:1.358696 11:0.271739 12:2.038043 13:5.333333 14:8.333333 15:2.083333 16:2.083333 18:12.5 19:3.125 20:1 21:-9 22:-0.026157 23:-0.408696 24:-1.226087 25:-0.6016 26:-0.6016 27:-1.226087 28:1.391304 29:-0.057643 30:0.010362 31:-0.911271 32:5 33:25 34:2 
-159.9975904330784 1:-22.4 2:22 3:31.818182 4:18.181818 5:31.818182 6:13.636364 8:22.727273 9:9.090909 10:2.272727 11:0.619835 12:1.446281 13:6.333333 14:6.060606 15:10.606061 17:4.545455 18:7.575758 19:3.030303 22:-0.032 23:-0.339394 25:-0.704 26:-0.704 27:-1.018182 28:1 29:-0.060116 30:0.01081 31:0.479616 32:1 33:18 34:3 
-97.14415091284768 1:-21.4 2:21 3:28.571429 4:28.571429 5:9.52381 6:4.761905 7:4.761905 8:9.52381 9:19.047619 10:1.814059 11:0.453515 12:1.360544 13:5 14:9.52381 15:3.174603 16:1.587302 17:1.587302 18:3.174603 19:6.349206 22:-0.035667 23:-0.339683 25:-0.749 26:-0.749 27:-1.019048 28:1 29:-0.06269 30:0.011276 31:0.719424 32:5 33:14 34:2 
-256 1:-24.4 2:22 3:40.909091 4:9.090909 5:31.818182 6:4.545455 7:4.545455 8:13.636364 9:27.272727 10:1.859504 11:0.413223 12:1.859504 13:6 14:3.030303 15:10.606061 16:1.515152 17:1.515152 18:4.545455 19:9.090909 22:-0.027111 23:-0.369697 25:-0.596444 26:-0.596444 27:-1.109091 28:1 29:-0.060043 30:0.010797 32:2 33:18 34:2 
-137.3963019066517 1:-26.3 2:21 3:42.857143 4:19.047619 6:19.047619 7:4.761905 8:28.571429 9:14.285714 10:0.865801 11:1.082251 12:1.948052 13:5 14:6.349206 16:1.587302 17:6.349206 18:9.52381 19:4.761905 20:1 21:1 22:-0.027894 23:-0.398485 24:-1.195455 25:-0.613667 26:-0.613667 27:-1.195455 28:0.954545 29:-0.060182 30:0.01082 31:-0.455635 32:3 33:13 34:5 
-256 1:-23.7 2:22 3:36.363636 4:4.545455 5:22.727273 7:22.727273 8:18.181818 9:18.181818 10:1.136364 11:0.94697 12:1.515152 13:5 14:1.515152 15:7.575758 16:7.575758 18:6.060606 19:6.060606 20:2 21:2 22:-0.027156 23:-0.329167 24:-0.49375 25:-0.65175 26:-0.65175 27:-0.9875 28:0.916667 29:-0.055055 30:0.0099 31:0.167866 32:4 33:13 34:5 
-256 1:-28.7 2:22 3:31.818182 4:22.727273 5:22.727273 6:9.090909 7:9.090909 8:13.636364 9:18.181818 10:2.066116 11:0.826446 12:1.446281 13:7 14:7.575758 15:7.575758 16:3.030303 17:3.030303 18:4.545455 19:6.060606 22:-0.041 23:-0.434848 25:-0.902 26:-0.902 27:-1.304545 28:1 29:-0.060367 30:0.010849 31:-1.031175 32:1 33:17 34:4 
-238.0569637146378 1:-18.7 2:19 3:36.842105 4:10.526316 5:26.315789 7:10.526316 8:10.526316 9:26.315789 10:1.674641 11:0.478469 12:1.674641 13:4.333333 14:3.508772 15:8.77193 16:3.508772 18:3.508772 19:8.77193 20:2 21:3 22:-0.023071 23:-0.283333 24:-0.425 25:-0.507571 26:-0.507571 27:-0.85 28:0.863636 29:-0.060017 30:0.010793 31:1.366906 32:3 33:14 34:2 
-256 1:-20.7 2:21 3:28.571429 4:23.809524 5:19.047619 6:4.761905 7:14.285714 8:9.52381 9:19.047619 10:2.040816 11:0.907029 12:1.360544 13:6 14:7.936508 15:6.349206 16:4.761905 17:1.587302 18:3.174603 19:6.349206 22:-0.0345 23:-0.328571 25:-0.7245 26:-0.7245 27:-0.985714 28:1 29:-0.062993 30:0.011327 31:0.88729 32:2 33:15 34:4 
-87.50611833887578 1:-28 2:20 3:55 4:10 5:20 7:5 8:15 9:40 10:1.428571 11:0.238095 12:2.619048 13:6 14:3.333333 15:6.666667 16:1.666667 18:5 19:13.333333 20:1 21:1 22:-0.024242 23:-0.444444 24:-1.333333 25:-0.509091 26:-0.509091 27:-1.333333 28:0.952381 29:-0.063141 30:0.01135 31:-0.863309 32:2 33:17 34:1 
-256 1:-27.2 2:22 3:40.909091 4:27.272727 5:4.545455 6:4.545455 8:22.727273 9:18.181818 10:1.383399 11:0.197628 12:1.778656 13:5.666667 14:9.090909 15:1.515152 17:1.515152 18:7.575758 19:6.060606 20:1 21:1 22:-0.028908 23:-0.394203 24:-1.182609 25:-0.664889 26:-0.664889 27:-1.182609 28:0.956522 29:-0.057569 30:0.01035 31:-0.671463 32:5 33:16 34:1 
-256 1:-30 2:20 3:45 4:10 5:10 7:20 8:10 9:35 10:0.952381 11:0.952381 12:2.142857 13:5.666667 14:3.333333 15:3.333333 16:6.666667 18:3.333333 19:11.666667 21:1 22:-0.031746 23:-0.47619 25:-0.666667 26:-0.666667 27:-1.428571 28:0.952381 29:-0.063314 30:0.011377 31:-1.342926 32:3 33:13 34:4 
-256 1:-19.7 2:18 3:38.888889 4:16.666667 5:16.666667 7:11.111111 8:16.666667 9:22.222222 10:1.587302 11:0.529101 12:1.851852 13:5 14:5.555556 15:5.555556 16:3.703704 18:5.555556 19:7.407407 20:2 21:3 22:-0.024122 23:-0.312698 24:-0.469048 25:-0.506571 26:-0.506571 27:-0.938095 28:0.857143 29:-0.062743 30:0.011285 31:1.127098 32:3 33:13 34:2 
-50.32068439100346 1:-30.7 2:19 3:52.631579 4:10.526316 5:15.789474 6:5.263158 7:10.526316 8:21.052632 9:31.578947 10:1.196172 11:0.717703 12:2.392344 13:6 14:3.508772 15:5.263158 16:3.508772 17:1.754386 18:7.017544 19:10.526316 20:2 21:3 22:-0.026514 23:-0.465152 24:-0.697727 25:-0.5833 26:-0.5833 27:-1.395455 28:0.863636 29:-0.06049 30:0.010868 31:-1.510791 32:1 33:15 34:3 
-256 1:-25.7 2:21 3:47.619048 4:9.52381 5:9.52381 7:14.285714 8:33.333333 9:14.285714 10:0.907029 11:0.680272 12:2.267574 13:5.666667 14:3.174603 15:3.174603 16:4.761905 18:11.111111 19:4.761905 22:-0.0257 23:-0.407937 25:-0.5397 26:-0.5397 27:-1.22381 28:1 29:-0.063294 30:0.011374 31:-0.311751 32:4 33:14 34:3 
-73.34097816694891 1:-37.9 2:22 3:59.090909 4:13.636364 5:9.090909 6:4.545455 7:4.545455 8:22.727273 9:36.363636 10:0.94697 11:0.378788 12:2.462121 13:6 14:4.545455 15:3.030303 16:1.515152 17:1.515152 18:7.575758 19:12.121212 20:1 21:2 22:-0.026724 23:-0.526389 24:-1.579167 25:-0.641385 26:-0.641385 27:-1.579167 28:0.916667 29:-0.05581 30:0.010015 31:-3.23741 32:2 33:18 34:2 
-256 1:-26.5 2:21 3:47.619048 4:19.047619 5:19.047619 7:4.761905 8:33.333333 9:14.285714 10:1.731602 11:0.21645 12:2.164502 13:5.333333 14:6.349206 15:6.349206 16:1.587302 18:11.111111 19:4.761905 20:1 21:1 22:-0.025295 23:-0.401515 24:-1.204545 25:-0.5565 26:-0.5565 27:-1.204545 28:0.954545 29:-0.060083 30:0.010804 31:-0.503597 32:2 33:18 34:1 
-71.58539244600315 1:-19.3 2:15 3:33.333333 5:26.666667 6:13.333333 7:20 8:26.666667 9:6.666667 10:1.269841 11:1.587302 12:1.587302 13:4.333333 15:8.888889 16:6.666667 17:4.444444 18:8.888889 19:2.222222 21:6 22:-0.027571 23:-0.306349 25:-0.579 26:-0.579 27:-0.919048 28:0.714286 29:-0.062696 30:0.011277 31:1.223022 32:2 33:8 34:5 
-139.6416410429768 1:-30.8 2:21 3:42.857143 4:14.285714 5:4.761905 7:23.809524 8:38.095238 9:4.761905 10:0.907029 11:1.133787 12:2.040816 13:6 14:4.761905 15:1.587302 16:7.936508 18:12.698413 19:1.587302 22:-0.034222 23:-0.488889 25:-0.718667 26:-0.718667 27:-1.466667 28:1 29:-0.063441 30:0.011396 31:-1.534772 32:3 33:13 34:5 
-88.99258926142376 1:-17.8 2:22 3:22.727273 4:9.090909 5:22.727273 6:13.636364 7:13.636364 8:9.090909 9:13.636364 10:1.446281 11:1.239669 12:1.033058 13:6 14:3.030303 15:7.575758 16:4.545455 17:4.545455 18:3.030303 19:4.545455 22:-0.0356 23:-0.269697 25:-0.7832 26:-0.7832 27:-0.809091 28:1 29:-0.059941 30:0.010781 31:1.582734 32:4 33:12 34:6 
-256 1:-23.3 2:18 3:38.888889 4:11.111111 5:11.111111 6:16.666667 7:5.555556 8:16.666667 9:22.222222 10:1.058201 11:1.058201 12:1.851852 13:5 14:3.703704 15:3.703704 16:1.851852 17:5.555556 18:5.555556 19:7.407407 20:1 21:3 22:-0.028531 23:-0.369841 24:-1.109524 25:-0.599143 26:-0.599143 27:-1.109524 28:0.857143 29:-0.062914 30:0.011314 31:0.263789 32:3 33:11 34:4 
-256 1:-23.4 2:22 3:36.363636 4:18.181818 5:13.636364 7:9.090909 8:18.181818 9:18.181818 10:1.446281 11:0.413223 12:1.652893 13:5 14:6.060606 15:4.545455 16:3.030303 18:6.060606 19:6.060606 22:-0.02925 23:-0.354545 25:-0.6435 26:-0.6435 27:-1.063636 28:1 29:-0.060054 30:0.010799 31:0.239808 32:5 33:15 34:2 
-256 1:-26.8 2:22 3:31.818182 4:13.636364 5:18.181818 6:13.636364 7:18.181818 8:22.727273 9:9.090909 10:1.446281 11:1.446281 12:1.446281 13:7 14:4.545455 15:6.060606 16:6.060606 17:4.545455 18:7.575758 19:3.030303 22:-0.038286 23:-0.406061 25:-0.842286 26:-0.842286 27:-1.218182 28:1 29:-0.06027 30:0.010834 31:-0.57554 32:1 33:14 34:7 
-0.7057200186465944 1:-30.2 2:23 3:39.130435 4:21.73913 5:13.043478 7:17.391304 8:26.086957 9:13.043478 10:1.512287 11:0.756144 12:1.701323 13:6 14:7.246377 15:4.347826 16:5.797101 18:8.695652 19:4.347826 22:-0.033556 23:-0.437681 25:-0.771778 26:-0.771778 27:-1.313043 28:1 29:-0.057762 30:0.010381 31:-1.390887 32:3 33:16 34:4 
-256 1:-19.2 2:20 3:35 4:25 5:20 6:5 7:5 8:10 9:25 10:1.956522 11:0.434783 12:1.521739 13:5 14:8.333333 15:6.666667 16:1.666667 17:1.666667 18:3.333333 19:8.333333 20:1 21:3 22:-0.023851 23:-0.278261 24:-0.834783 25:-0.548571 26:-0.548571 27:-0.834783 28:0.869565 29:-0.057409 30:0.010324 31:1.247002 32:2 33:16 34:2 
-256 1:-24.4 2:19 3:42.105263 4:21.052632 5:10.526316 7:5.263158 8:21.052632 9:21.052632 10:1.372998 11:0.228833 12:1.830664 13:5 14:7.017544 15:3.508772 16:1.754386 18:7.017544 19:7.017544 20:2 21:4 22:-0.025196 23:-0.353623 24:-0.530435 25:-0.5795 26:-0.5795 27:-1.06087 28:0.826087 29:-0.05743 30:0.010328 32:4 33:14 34:1 
-142.9433682032884 1:-26.3 2:20 3:35 4:25 5:20 6:10 7:10 9:35 10:2.142857 11:0.952381 12:1.666667 13:6.333333 14:8.333333 15:6.666667 16:3.333333 17:3.333333 19:11.666667 20:1 21:1 22:-0.035782 23:-0.41746 24:-1.252381 25:-0.751429 26:-0.751429 27:-1.252381 28:0.952381 29:-0.06302 30:0.011331 31:-0.455635 32:1 33:15 34:4 
-219.2417355205987 1:-29.6 2:23 3:43.478261 4:13.043478 5:13.043478 6:4.347826 7:21.73913 8:30.434783 9:13.043478 10:1.134216 11:1.134216 12:1.890359 13:6.666667 14:4.347826 15:4.347826 16:7.246377 17:1.449275 18:10.144928 19:4.347826 22:-0.0296 23:-0.428986 25:-0.6808 26:-0.6808 27:-1.286957 28:1 29:-0.057773 30:0.010382 31:-1.247002 32:1 33:16 34:6 
-32.86355807459586 1:-34.2 2:20 3:60 4:10 5:5 6:5 7:5 8:50 9:10 10:0.75 11:0.5 12:3 13:5.666667 14:3.333333 15:1.666667 16:1.666667 17:1.666667 18:16.666667 19:3.333333 22:-0.0285 23:-0.57 25:-0.57 26:-0.57 27:-1.71 28:1 29:-0.066801 30:0.011993 31:-2.35012 32:3 33:15 34:2 
-256 1:-28.5 2:16 3:31.25 4:18.75 5:25 6:6.25 7:6.25 8:18.75 9:12.5 10:1.988636 11:0.568182 12:1.420455 13:4.666667 14:6.25 15:8.333333 16:2.083333 17:2.083333 18:6.25 19:4.166667 21:6 22:-0.041455 23:-0.431818 25:-0.912 26:-0.912 27:-1.295455 28:0.727273 29:-0.060356 30:0.010847 31:-0.983213 32:2 33:12 34:2 
-116.2787907159647 1:-29.2 2:21 3:47.619048 4:14.285714 5:9.52381 7:4.761905 8:28.571429 9:19.047619 10:1.082251 11:0.21645 12:2.164502 13:5.333333 14:4.761905 15:3.174603 16:1.587302 18:9.52381 19:6.349206 21:1 22:-0.027873 23:-0.442424 25:-0.6132 26:-0.6132 27:-1.327273 28:0.954545 29:-0.060405 30:0.010855 31:-1.151079 32:5 33:15 34:1 
-256 1:-23.2 2:20 3:35 4:15 5:25 6:10 8:30 9:5 10:1.818182 11:0.454545 12:1.590909 13:4.666667 14:5 15:8.333333 17:3.333333 18:10 19:1.666667 20:1 21:2 22:-0.03013 23:-0.351515 24:-1.054545 25:-0.662857 26:-0.662857 27:-1.054545 28:0.909091 29:-0.060016 30:0.010793 31:0.28777 32:3 33:15 34:2 
-235.1817144655315 1:-21.4 2:22 3:27.272727 4:13.636364 5:27.272727 6:4.545455 7:4.545455 8:18.181818 9:9.090909 10:1.859504 11:0.413223 12:1.239669 13:4.666667 14:4.545455 15:9.090909 16:1.515152 17:1.515152 18:6.060606 19:3.030303 22:-0.035667 23:-0.324242 25:-0.784667 26:-0.784667 27:-0.972727 28:1 29:-0.05992 30:0.010777 31:0.719424 32:5 33:15 34:2 
-256 1:-23 2:19 3:36.842105 4:10.526316 5:15.789474 6:5.263158 8:21.052632 9:15.789474 10:1.196172 11:0.239234 12:1.674641 13:4.333333 14:3.508772 15:5.263158 17:1.754386 18:7.017544 19:5.263158 20:2 21:3 22:-0.028377 23:-0.348485 24:-0.522727 25:-0.624286 26:-0.624286 27:-1.045455 28:0.863636 29:-0.060005 30:0.010791 31:0.335731 32:6 33:12 34:1 
-89.31727704747431 1:-19.7 2:22 3:27.272727 4:13.636364 5:36.363636 6:4.545455 7:4.545455 8:9.090909 9:18.181818 10:2.272727 11:0.413223 12:1.239669 13:5.333333 14:4.545455 15:12.121212 16:1.515152 17:1.515152 18:3.030303 19:6.060606 22:-0.032833 23:-0.298485 25:-0.722333 26:-0.722333 27:-0.895455 28:1 29:-0.059853 30:0.010766 31:1.127098 32:3 33:17 34:2 
-256 1:-23.4 2:18 3:50 4:16.666667 5:16.666667 7:5.555556 8:33.333333 9:16.666667 10:1.515152 11:0.252525 12:2.272727 13:4.333333 14:5.555556 15:5.555556 16:1.851852 18:11.111111 19:5.555556 20:2 21:4 22:-0.021273 23:-0.354545 24:-0.531818 25:-0.468 26:-0.468 27:-1.063636 28:0.818182 29:-0.060065 30:0.010801 31:0.239808 32:2 33:15 34:1 
-256 1:-28.2 2:19 3:47.368421 4:10.526316 5:5.263158 6:5.263158 7:21.052632 8:21.052632 9:26.315789 10:0.75188 11:1.253133 12:2.255639 13:5.666667 14:3.508772 15:1.754386 16:7.017544 17:1.754386 18:7.017544 19:8.77193 20:1 21:2 22:-0.028349 23:-0.447619 24:-1.342857 25:-0.595333 26:-0.595333 27:-1.342857 28:0.904762 29:-0.06323 30:0.011364 31:-0.911271 32:2 33:12 34:5 
-256 1:-32.1 2:22 3:50 4:13.636364 5:13.636364 6:4.545455 7:9.090909 8:27.272727 9:22.727273 10:1.239669 11:0.619835 12:2.272727 13:6.666667 14:4.545455 15:4.545455 16:3.030303 17:1.515152 18:9.090909 19:7.575758 22:-0.029182 23:-0.486364 25:-0.642 26:-0.642 27:-1.459091 28:1 29:-0.060562 30:0.010879 31:-1.846523 32:2 33:17 34:3 
-164.0515409672763 1:-26.5 2:20 3:35 4:30 5:15 6:5 7:10 8:5 9:30 10:2.142857 11:0.714286 12:1.666667 13:6 14:10 15:5 16:3.333333 17:1.666667 18:1.666667 19:10 20:1 21:1 22:-0.036054 23:-0.420635 24:-1.261905 25:-0.757143 26:-0.757143 27:-1.261905 28:0.952381 29:-0.063216 30:0.011362 31:-0.503597 32:2 33:15 34:3 
-61.01161026088117 1:-22.1 2:20 3:25 4:20 5:35 6:5 7:15 8:15 9:10 10:2.5 11:0.909091 12:1.136364 13:6 14:6.666667 15:11.666667 16:5 17:1.666667 18:5 19:3.333333 20:1 21:2 22:-0.040182 23:-0.334848 24:-1.004545 25:-0.884 26:-0.884 27:-1.004545 28:0.909091 29:-0.06016 30:0.010817 31:0.551559 32:2 33:14 34:4 
-256 1:-19.7 2:15 3:46.666667 4:20 5:13.333333 7:6.666667 8:20 9:26.666667 10:1.587302 11:0.31746 12:2.222222 13:4.333333 14:6.666667 15:4.444444 16:2.222222 18:6.666667 19:8.888889 20:2 21:6 22:-0.020102 23:-0.312698 24:-0.469048 25:-0.422143 26:-0.422143 27:-0.938095 28:0.714286 29:-0.06278 30:0.011291 31:1.127098 32:2 33:12 34:1 
-256 1:-25.4 2:21 3:38.095238 4:9.52381 5:23.809524 6:9.52381 8:14.285714 9:23.809524 10:1.515152 11:0.4329 12:1.731602 13:5.666667 14:3.174603 15:7.936508 17:3.174603 18:4.761905 19:7.936508 20:1 21:1 22:-0.030307 23:-0.384848 24:-1.154545 25:-0.66675 26:-0.66675 27:-1.154545 28:0.954545 29:-0.060134 30:0.010812 31:-0.239808 32:4 33:15 34:2 
-256 1:-29.1 2:21 3:38.095238 4:19.047619 5:14.285714 6:9.52381 7:4.761905 8:19.047619 9:19.047619 10:1.449275 11:0.621118 12:1.656315 13:6 14:6.349206 15:4.761905 16:1.587302 17:3.174603 18:6.349206 19:6.349206 20:1 21:2 22:-0.033212 23:-0.421739 24:-1.265217 25:-0.763875 26:-0.763875 27:-1.265217 28:0.913043 29:-0.057701 30:0.010371 31:-1.127098 32:3 33:15 34:3 
-256 1:-23.8 2:20 3:50 4:15 5:10 6:5 7:10 8:35 9:15 10:1.190476 11:0.714286 12:2.380952 13:5 14:5 15:3.333333 16:3.333333 17:1.666667 18:11.666667 19:5 20:1 21:1 22:-0.022667 23:-0.377778 24:-1.133333 25:-0.476 26:-0.476 27:-1.133333 28:0.952381 29:-0.062811 30:0.011297 31:0.143885 32:2 33:15 34:3 
-256 1:-26.6 2:19 3:47.368421 4:10.526316 5:10.526316 6:10.526316 7:10.526316 8:21.052632 9:26.315789 10:1.002506 11:1.002506 12:2.255639 13:5.666667 14:3.508772 15:3.508772 16:3.508772 17:3.508772 18:7.017544 19:8.77193 21:2 22:-0.026741 23:-0.422222 25:-0.561556 26:-0.561556 27:-1.266667 28:0.904762 29:-0.063096 30:0.011343 31:-0.527578 32:2 33:13 34:4 
-225.0530671962343 1:-24.1 2:20 3:35 4:5 5:20 7:20 9:35 10:1.190476 11:0.952381 12:1.666667 13:5.333333 14:1.666667 15:6.666667 16:6.666667 19:11.666667 21:1 22:-0.032789 23:-0.38254 25:-0.688571 26:-0.688571 27:-1.147619 28:0.952381 29:-0.062846 30:0.011302 31:0.071942 32:4 33:12 34:4 
-48.63578400632804 1:-23.3 2:19 3:36.842105 4:21.052632 5:42.105263 7:5.263158 8:21.052632 9:15.789474 10:3.157895 11:0.263158 12:1.842105 13:6 14:7.017544 15:14.035088 16:1.754386 18:7.017544 19:5.263158 20:1 21:1 22:-0.031621 23:-0.388333 24:-1.165 25:-0.632429 26:-0.632429 27:-1.165 28:0.95 29:-0.065942 30:0.01186 31:0.263789 32:1 33:17 34:1 
-135.811836620418 1:-22.9 2:22 3:31.818182 4:18.181818 5:18.181818 6:4.545455 7:9.090909 8:13.636364 9:18.181818 10:1.652893 11:0.619835 12:1.446281 13:4.666667 14:6.060606 15:6.060606 16:3.030303 17:1.515152 18:4.545455 19:6.060606 22:-0.032714 23:-0.34697 25:-0.719714 26:-0.719714 27:-1.040909 28:1 29:-0.060027 30:0.010795 31:0.359712 32:5 33:14 34:3 
-256 1:-30 2:17 3:41.176471 4:17.647059 5:17.647059 6:5.882353 7:11.764706 8:29.411765 9:11.764706 10:1.470588 11:0.735294 12:1.715686 13:5.333333 14:5.882353 15:5.882353 16:3.921569 17:1.960784 18:9.803922 19:3.921569 21:7 22:-0.030357 23:-0.416667 25:-0.728571 26:-0.728571 27:-1.25 28:0.708333 29:-0.05537 30:0.00995 31:-1.342926 32:1 33:13 34:3 
-62.82967782718075 1:-23.8 2:18 3:38.888889 4:5.555556 5:22.222222 6:11.111111 7:16.666667 8:11.111111 9:27.777778 10:1.207729 11:1.207729 12:1.690821 13:5.666667 14:1.851852 15:7.407407 16:5.555556 17:3.703704 18:3.703704 19:9.259259 20:3 21:5 22:-0.026609 23:-0.344928 24:-0.344928 25:-0.612 26:-0.612 27:-1.034783 28:0.782609 29:-0.05743 30:0.010328 31:0.143885 32:1 33:12 34:5 
