svm_type c_svc
kernel_type rbf
gamma 0.000488
nr_class 2
total_sv 59
rho -0.440742
label 1 2
nr_sv 35 24
SV
0.641960446791209 1:-19.6 2:14 3:35.714286 5:50 8:14.285714 9:21.428571 10:2.173913 12:1.552795 13:6 15:25 18:7.142857 19:10.714286 20:3 21:9 22:-0.023861 23:-0.426087 24:-0.284058 25:-0.06087 26:-0.5488 27:-0.852174 28:0.608696 29:-0.057159 30:0.010282 31:1.317097 32:2 33:12 
0.4461847071740883 1:-21.4 2:13 3:53.846154 4:15.384615 6:7.692308 7:7.692308 8:23.076923 9:30.769231 10:0.699301 11:0.699301 12:2.447552 13:5.5 14:7.692308 16:3.846154 17:3.846154 18:11.538462 19:15.384615 20:2 21:9 22:-0.018065 23:-0.486364 24:-0.486364 25:-0.074825 26:-0.397429 27:-0.972727 28:0.590909 29:-0.059922 30:0.010778 31:0.869781 32:2 33:9 34:2 
0.3712944661667622 1:-23.8 2:19 3:36.842105 4:10.526316 5:21.052632 7:21.052632 9:36.842105 10:1.435407 11:0.956938 12:1.674641 13:7.5 14:5.263158 15:10.526316 16:10.526316 19:18.421053 20:1 21:3 22:-0.029364 23:-0.540909 24:-1.081818 25:-0.056938 26:-0.646 27:-1.081818 28:0.863636 29:-0.060009 30:0.010792 31:0.27336 32:2 33:13 34:4 
0.05591489363050476 1:-24.6 2:18 3:33.333333 4:27.777778 5:16.666667 6:5.555556 7:5.555556 9:33.333333 10:2.020202 11:0.505051 12:1.515152 13:7 14:13.888889 15:8.333333 16:2.777778 17:2.777778 19:16.666667 20:1 21:4 22:-0.033545 23:-0.559091 24:-1.118182 25:-0.062121 26:-0.738 27:-1.118182 28:0.818182 29:-0.060287 30:0.010837 31:0.074553 32:2 33:14 34:2 
0.5538358995050894 1:-22.5 2:20 3:20 4:40 5:10 6:5 7:10 8:10 9:10 10:2.272727 11:0.681818 12:0.909091 13:7.5 14:20 15:5 16:5 17:2.5 18:5 19:5 20:2 21:2 22:-0.051136 23:-0.511364 24:-0.511364 25:-0.051136 26:-1.125 27:-1.022727 28:0.909091 29:-0.059969 30:0.010785 31:0.596421 32:3 33:14 34:3 
0.8182589829744192 1:-20.1 2:21 3:23.809524 4:14.285714 5:19.047619 6:4.761905 7:14.285714 8:9.52381 9:14.285714 10:1.449275 11:0.828157 12:1.035197 13:4.5 14:7.142857 15:9.52381 16:7.142857 17:2.380952 18:4.761905 19:7.142857 20:1 21:2 22:-0.036704 23:-0.436957 24:-0.873913 25:-0.041615 26:-0.8442 27:-0.873913 28:0.913043 29:-0.05741 30:0.010324 31:1.192843 32:5 33:12 34:4 
1 1:-21.5 2:20 3:30 4:15 5:20 6:5 8:15 9:15 10:1.590909 11:0.227273 12:1.363636 13:5.5 14:7.5 15:10 17:2.5 18:7.5 19:7.5 20:1 21:2 22:-0.032576 23:-0.488636 24:-0.977273 25:-0.048864 26:-0.716667 27:-0.977273 28:0.909091 29:-0.059824 30:0.010761 31:0.84493 32:6 33:13 34:1 
0.216805371513422 1:-25.4 2:22 3:36.363636 4:27.272727 5:4.545455 7:13.636364 8:36.363636 10:1.446281 11:0.619835 12:1.652893 13:6.5 14:13.636364 15:2.272727 16:6.818182 18:18.181818 22:-0.03175 23:-0.577273 25:-0.052479 26:-0.6985 27:-1.154545 28:1 29:-0.060005 30:0.010791 31:-0.124254 32:4 33:15 34:3 
0.4565350690251321 1:-21.4 2:15 3:40 4:20 5:20 7:6.666667 8:6.666667 9:33.333333 10:1.818182 11:0.30303 12:1.818182 13:6.5 14:10 15:10 16:3.333333 18:3.333333 19:16.666667 20:1 21:7 22:-0.024318 23:-0.486364 24:-0.972727 25:-0.064848 26:-0.535 27:-0.972727 28:0.681818 29:-0.05997 30:0.010785 31:0.869781 32:2 33:12 34:1 
0.5036768871890839 1:-21.6 2:21 3:38.095238 5:19.047619 7:14.285714 8:9.52381 9:28.571429 10:0.828157 11:0.621118 12:1.656315 13:6.5 15:9.52381 16:7.142857 18:4.761905 19:14.285714 20:1 21:2 22:-0.024652 23:-0.469565 24:-0.93913 25:-0.04472 26:-0.567 27:-0.93913 28:0.913043 29:-0.057754 30:0.010379 31:0.82008 32:6 33:12 34:3 
0.5509797041989514 1:-17.5 2:20 3:30 4:10 5:30 7:10 9:30 10:1.818182 11:0.454545 12:1.363636 13:5 14:5 15:15 16:5 19:15 20:1 21:2 22:-0.026515 23:-0.397727 24:-0.795455 25:-0.039773 26:-0.583333 27:-0.795455 28:0.909091 29:-0.059735 30:0.010745 31:1.838966 32:4 33:14 34:2 
0.6968759383649374 1:-30.5 2:19 3:68.421053 5:5.263158 8:26.315789 9:42.105263 10:0.250627 12:3.258145 13:4.5 15:2.631579 18:13.157895 19:21.052632 20:1 21:2 22:-0.021227 23:-0.72619 24:-1.452381 25:-0.076441 26:-0.445769 27:-1.452381 28:0.904762 29:-0.063422 30:0.011393 31:-1.39165 32:5 33:14 
1 1:-16.6 2:18 3:38.888889 4:11.111111 5:22.222222 6:5.555556 8:16.666667 9:22.222222 10:1.515152 11:0.252525 12:1.767677 13:5 14:5.555556 15:11.111111 17:2.777778 18:8.333333 19:11.111111 20:1 21:4 22:-0.019403 23:-0.377273 24:-0.754545 25:-0.041919 26:-0.426857 27:-0.754545 28:0.818182 29:-0.059796 30:0.010756 31:2.062624 32:4 33:13 34:1 
0.3972626838521093 1:-25.7 2:20 3:35 4:5 5:30 7:25 8:15 9:20 10:1.590909 11:1.136364 12:1.590909 13:8 14:2.5 15:15 16:12.5 18:7.5 19:10 20:1 21:2 22:-0.033377 23:-0.584091 24:-1.168182 25:-0.058409 26:-0.734286 27:-1.168182 28:0.909091 29:-0.060072 30:0.010802 31:-0.198807 32:1 33:14 34:5 
0.9803172602082144 1:-22.3 2:20 3:40 4:5 5:10 7:15 8:35 9:5 10:0.681818 11:0.681818 12:1.818182 13:4 14:2.5 15:5 16:7.5 18:17.5 19:2.5 20:2 21:2 22:-0.025341 23:-0.506818 24:-0.506818 25:-0.050682 26:-0.5575 27:-1.013636 28:0.909091 29:-0.060285 30:0.010836 31:0.646123 32:6 33:11 34:3 
0.01213922342694587 1:-24.1 2:19 3:47.368421 4:21.052632 5:15.789474 8:15.789474 9:31.578947 10:1.754386 12:2.255639 13:5.5 14:10.526316 15:7.894737 18:7.894737 19:15.789474 20:1 21:2 22:-0.024228 23:-0.57381 24:-1.147619 25:-0.060401 26:-0.508778 27:-1.147619 28:0.904762 29:-0.06281 30:0.011296 31:0.198807 32:3 33:16 
0.3832269644087222 1:-26.1 2:20 3:45 4:15 5:5 7:25 8:10 9:35 10:0.869565 11:1.086957 12:1.956522 13:8 14:7.5 15:2.5 16:12.5 18:5 19:17.5 20:1 21:3 22:-0.025217 23:-0.567391 24:-1.134783 25:-0.056739 26:-0.58 27:-1.134783 28:0.869565 29:-0.057432 30:0.010328 31:-0.298211 32:2 33:13 34:5 
0.8390697558984865 1:-21.6 2:19 3:21.052632 4:31.578947 5:10.526316 6:10.526316 7:15.789474 8:15.789474 9:5.263158 10:2.105263 11:1.315789 12:1.052632 13:8.5 14:15.789474 15:5.263158 16:7.894737 17:5.263158 18:7.894737 19:2.631579 20:1 21:1 22:-0.0513 23:-0.54 24:-1.08 25:-0.056842 26:-1.026 27:-1.08 28:0.95 29:-0.065884 30:0.01185 31:0.82008 32:2 33:12 34:5 
0.2281345540542402 1:-21.6 2:18 3:22.222222 4:38.888889 5:16.666667 6:11.111111 7:11.111111 9:22.222222 10:2.645503 11:1.058201 12:1.058201 13:9 14:19.444444 15:8.333333 16:5.555556 17:5.555556 19:11.111111 20:1 21:3 22:-0.046286 23:-0.514286 24:-1.028571 25:-0.057143 26:-0.972 27:-1.028571 28:0.857143 29:-0.062971 30:0.011323 31:0.82008 33:14 34:4 
1 1:-24.1 2:20 3:25 4:20 5:20 7:10 8:15 9:10 10:1.904762 11:0.47619 12:1.190476 13:7.5 14:10 15:10 16:5 18:7.5 19:5 20:1 21:1 22:-0.045905 23:-0.57381 24:-1.147619 25:-0.057381 26:-0.964 27:-1.147619 28:0.952381 29:-0.062897 30:0.011311 31:0.198807 32:5 33:13 34:2 
0.5127610925390791 1:-37.9 2:19 3:68.421053 5:5.263158 6:10.526316 8:36.842105 9:31.578947 10:0.250627 11:0.501253 12:3.258145 13:6.5 15:2.631579 17:5.263158 18:18.421053 19:15.789474 20:1 21:2 22:-0.026377 23:-0.902381 24:-1.804762 25:-0.094987 26:-0.553923 27:-1.804762 28:0.904762 29:-0.063948 30:0.011468 31:-3.230616 32:3 33:14 34:2 
0.1322348287547501 1:-19.6 2:18 3:38.888889 4:11.111111 5:27.777778 8:16.666667 9:22.222222 10:1.851852 12:1.851852 13:4 14:5.555556 15:13.888889 18:8.333333 19:11.111111 20:1 21:3 22:-0.024 23:-0.466667 24:-0.933333 25:-0.051852 26:-0.504 27:-0.933333 28:0.857143 29:-0.062773 30:0.01129 31:1.317097 32:4 33:14 
0.1980436234634545 1:-30.1 2:21 3:38.095238 4:38.095238 5:4.761905 6:4.761905 7:4.761905 8:9.52381 9:28.571429 10:1.948052 11:0.4329 12:1.731602 13:8 14:19.047619 15:2.380952 16:2.380952 17:2.380952 18:4.761905 19:14.285714 20:1 21:1 22:-0.035915 23:-0.684091 24:-1.368182 25:-0.065152 26:-0.790125 27:-1.368182 28:0.954545 29:-0.0602 30:0.010823 31:-1.292247 32:2 33:17 34:2 
1 1:-24.9 2:20 3:45 4:30 5:15 8:35 9:10 10:1.956522 12:1.956522 13:5.5 14:15 15:7.5 18:17.5 19:5 20:1 21:3 22:-0.024058 23:-0.541304 24:-1.082609 25:-0.05413 26:-0.553333 27:-1.082609 28:0.869565 29:-0.057468 30:0.010334 32:2 33:18 
0.3256016223631483 1:-25.9 2:17 3:52.941176 4:11.764706 5:5.882353 7:23.529412 8:23.529412 9:29.411765 10:0.882353 11:1.176471 12:2.647059 13:6.5 14:5.882353 15:2.941176 16:11.764706 18:11.764706 19:14.705882 20:1 21:3 22:-0.024461 23:-0.6475 24:-1.295 25:-0.076176 26:-0.489222 27:-1.295 28:0.85 29:-0.066143 30:0.011893 31:-0.248509 32:1 33:12 34:4 
1 1:-18.2 2:19 3:31.578947 4:10.526316 5:26.315789 7:15.789474 8:26.315789 9:5.263158 10:1.674641 11:0.717703 12:1.435407 13:5 14:5.263158 15:13.157895 16:7.894737 18:13.157895 19:2.631579 20:1 21:3 22:-0.026197 23:-0.413636 24:-0.827273 25:-0.043541 26:-0.576333 27:-0.827273 28:0.863636 29:-0.059844 30:0.010764 31:1.66501 32:3 33:13 34:3 
1 1:-19.5 2:22 3:18.181818 4:27.272727 5:31.818182 6:4.545455 7:4.545455 9:18.181818 10:2.68595 11:0.413223 12:0.826446 13:6.5 14:13.636364 15:15.909091 16:2.272727 17:2.272727 19:9.090909 22:-0.04875 23:-0.443182 25:-0.040289 26:-1.0725 27:-0.886364 28:1 29:-0.059803 30:0.010757 31:1.341948 32:3 33:17 34:2 
0.09949226564692462 1:-17.1 2:15 3:40 4:13.333333 5:20 6:6.666667 7:6.666667 8:33.333333 9:6.666667 10:1.515152 11:0.606061 12:1.818182 13:5 14:6.666667 15:10 16:3.333333 17:3.333333 18:16.666667 19:3.333333 20:3 21:7 22:-0.019432 23:-0.388636 24:-0.259091 25:-0.051818 26:-0.4275 27:-0.777273 28:0.681818 29:-0.059749 30:0.010748 31:1.93837 32:2 33:11 34:2 
0.05448602764857297 1:-30.2 2:20 3:50 5:30 8:25 9:25 10:1.304348 12:2.173913 13:7 15:15 18:12.5 19:12.5 20:1 21:3 22:-0.026261 23:-0.656522 24:-1.313043 25:-0.065652 26:-0.604 27:-1.313043 28:0.869565 29:-0.057661 30:0.010365 31:-1.317097 32:4 33:16 
1 1:-24.3 2:21 3:19.047619 4:23.809524 5:33.333333 6:14.285714 8:19.047619 10:2.597403 11:0.649351 12:0.865801 13:9 14:11.904762 15:16.666667 17:7.142857 18:9.52381 20:1 21:1 22:-0.057989 23:-0.552273 24:-1.104545 25:-0.052597 26:-1.27575 27:-1.104545 28:0.954545 29:-0.059965 30:0.010785 31:0.149105 32:2 33:16 34:3 
0.6258778540463957 1:-20.4 2:20 3:20 4:10 5:20 6:10 7:25 9:20 10:1.363636 11:1.590909 12:0.909091 13:8.5 14:5 15:10 16:12.5 17:5 19:10 20:1 21:2 22:-0.046364 23:-0.463636 24:-0.927273 25:-0.046364 26:-1.02 27:-0.927273 28:0.909091 29:-0.060011 30:0.010792 31:1.11829 32:3 33:10 34:7 
0.2146327094855222 1:-27.5 2:20 3:50 5:10 6:15 7:5 8:10 9:40 10:0.454545 11:0.909091 12:2.272727 13:7 15:5 16:2.5 17:7.5 18:5 19:20 21:2 22:-0.025 23:-0.625 25:-0.0625 26:-0.55 27:-1.25 28:0.909091 29:-0.06014 30:0.010813 31:-0.646123 32:4 33:12 34:4 
0.680019884173899 1:-26.7 2:21 3:23.809524 4:14.285714 5:33.333333 6:14.285714 7:4.761905 8:14.285714 9:9.52381 10:2.164502 11:0.865801 12:1.082251 13:9.5 14:7.142857 15:16.666667 16:2.380952 17:7.142857 18:7.142857 19:4.761905 20:1 21:1 22:-0.050973 23:-0.606818 24:-1.213636 25:-0.057792 26:-1.1214 27:-1.213636 28:0.954545 29:-0.0601 30:0.010807 31:-0.447316 32:2 33:15 34:4 
0.9813786354700278 1:-36.6 2:20 3:65 5:10 7:5 8:5 9:60 10:0.47619 11:0.238095 12:3.095238 13:6.5 15:5 16:2.5 18:2.5 19:30 21:1 22:-0.026813 23:-0.871429 25:-0.087143 26:-0.563077 27:-1.742857 28:0.952381 29:-0.063778 30:0.011444 31:-2.907555 32:4 33:15 34:1 
1 1:-16.8 2:20 3:15 4:15 5:35 6:5 7:10 9:15 10:2.272727 11:0.681818 12:0.681818 13:5.5 14:7.5 15:17.5 16:5 17:2.5 19:7.5 20:2 21:2 22:-0.050909 23:-0.381818 24:-0.381818 25:-0.038182 26:-1.12 27:-0.763636 28:0.909091 29:-0.059679 30:0.010736 31:2.012922 32:4 33:13 34:3 
-1 1:-19.5 2:18 3:33.333333 4:5.555556 5:11.111111 7:27.777778 9:33.333333 10:0.757576 11:1.262626 12:1.515152 13:6 14:2.777778 15:5.555556 16:13.888889 19:16.666667 20:1 21:4 22:-0.026591 23:-0.443182 24:-13.577337 25:-0.049242 26:-0.585 27:-0.886364 28:0.818182 29:-0.059971 30:0.010786 31:1.151961 32:4 33:9 34:5 
-0.5723727211348074 1:-24.9 2:21 3:47.619048 4:4.761905 5:9.52381 7:4.761905 8:33.333333 9:14.285714 10:0.649351 11:0.21645 12:2.164502 13:4.5 14:2.380952 15:4.761905 16:2.380952 18:16.666667 19:7.142857 20:1 21:1 22:-0.023768 23:-0.565909 24:-18.977337 25:-0.053896 26:-0.5229 27:-1.131818 28:0.954545 29:-0.060136 30:0.010813 31:-0.171569 32:7 33:13 34:1 
-1 1:-14.1 2:19 3:15.789474 4:26.315789 5:31.578947 7:10.526316 8:15.789474 10:2.756892 11:0.501253 12:0.75188 13:6.5 14:13.157895 15:15.789474 16:5.263158 18:7.894737 20:1 21:2 22:-0.042524 23:-0.335714 24:-8.177337 25:-0.035338 26:-0.893 27:-0.671429 28:0.904762 29:-0.062461 30:0.011236 31:2.47549 32:3 33:14 34:2 
-1 1:-19.5 2:20 3:30 4:10 5:25 6:10 7:5 8:15 9:15 10:1.590909 11:0.681818 12:1.363636 13:6.5 14:5 15:12.5 16:2.5 17:5 18:7.5 19:7.5 20:1 21:2 22:-0.029545 23:-0.443182 24:-13.577337 25:-0.044318 26:-0.65 27:-0.886364 28:0.909091 29:-0.05991 30:0.010775 31:1.151961 32:4 33:13 34:3 
-1 1:-23.6 2:19 3:26.315789 4:36.842105 5:10.526316 8:26.315789 10:2.255639 12:1.253133 13:7 14:18.421053 15:5.263158 18:13.157895 20:1 21:2 22:-0.042705 23:-0.561905 24:-17.677337 25:-0.059148 26:-0.8968 27:-1.12381 28:0.904762 29:-0.062889 30:0.01131 31:0.147059 32:5 33:14 
-1 1:-24 2:21 3:38.095238 4:23.809524 5:9.52381 6:4.761905 7:9.52381 8:33.333333 9:4.761905 10:1.449275 11:0.621118 12:1.656315 13:6.5 14:11.904762 15:4.761905 16:4.761905 17:2.380952 18:16.666667 19:2.380952 20:1 21:2 22:-0.027391 23:-0.521739 24:-18.077337 25:-0.049689 26:-0.63 27:-1.043478 28:0.913043 29:-0.057442 30:0.01033 31:0.04902 32:3 33:15 34:3 
-1 1:-21.9 2:17 3:41.176471 4:29.411765 5:11.764706 7:5.882353 8:11.764706 9:29.411765 10:1.871658 11:0.26738 12:1.871658 13:6 14:14.705882 15:5.882353 16:2.941176 18:5.882353 19:14.705882 20:1 21:5 22:-0.024175 23:-0.497727 24:-15.977337 25:-0.058556 26:-0.531857 27:-0.995455 28:0.772727 29:-0.059996 30:0.01079 31:0.563725 32:2 33:14 34:1 
-1 1:-24.4 2:18 3:61.111111 4:5.555556 5:11.111111 6:5.555556 8:16.666667 9:44.444444 10:0.757576 11:0.252525 12:2.777778 13:5.5 14:2.777778 15:5.555556 17:2.777778 18:8.333333 19:22.222222 20:1 21:4 22:-0.018149 23:-0.554545 24:-18.477337 25:-0.061616 26:-0.399273 27:-1.109091 28:0.818182 29:-0.06008 30:0.010804 31:-0.04902 32:3 33:14 34:1 
-0.1804906795219565 1:-24.2 2:20 3:25 4:20 5:10 6:20 7:10 8:10 9:15 10:1.363636 11:1.363636 12:1.136364 13:7 14:10 15:5 16:5 17:10 18:5 19:7.5 20:1 21:2 22:-0.044 23:-0.55 24:-18.277337 25:-0.055 26:-0.968 27:-1.1 28:0.909091 29:-0.060071 30:0.010802 32:3 33:11 34:6 
-0.2048341971153261 1:-27.7 2:21 3:52.380952 5:9.52381 7:23.809524 8:19.047619 9:33.333333 10:0.4329 11:1.082251 12:2.380952 13:7 15:4.761905 16:11.904762 18:9.52381 19:16.666667 20:1 21:1 22:-0.024037 23:-0.629545 24:-21.777337 25:-0.059957 26:-0.528818 27:-1.259091 28:0.954545 29:-0.06036 30:0.010848 31:-0.857843 32:3 33:13 34:5 
-0.9048130602527609 1:-20.5 2:19 3:21.052632 4:15.789474 5:15.789474 7:15.789474 8:10.526316 9:10.526316 10:1.503759 11:0.75188 12:1.002506 13:5 14:7.894737 15:7.894737 16:7.894737 18:5.263158 19:5.263158 20:1 21:2 22:-0.046369 23:-0.488095 24:-14.577337 25:-0.051378 26:-0.97375 27:-0.97619 28:0.904762 29:-0.062683 30:0.011275 31:0.906863 32:6 33:10 34:3 
-1 1:-17.9 2:21 3:14.285714 4:33.333333 5:23.809524 6:9.52381 9:14.285714 10:2.597403 11:0.4329 12:0.649351 13:7 14:16.666667 15:11.904762 17:4.761905 19:7.142857 21:1 22:-0.056955 23:-0.406818 24:-11.977337 25:-0.038745 26:-1.253 27:-0.813636 28:0.954545 29:-0.059764 30:0.010751 31:1.544118 32:4 33:15 34:2 
-0.3865222682655999 1:-32.3 2:18 3:61.111111 4:22.222222 7:5.555556 8:27.777778 9:33.333333 10:0.966184 11:0.241546 12:2.657005 13:7 14:11.111111 16:2.777778 18:13.888889 19:16.666667 20:2 21:5 22:-0.02298 23:-0.702174 24:-26.377337 25:-0.078019 26:-0.528545 27:-1.404348 28:0.782609 29:-0.057863 30:0.010396 31:-1.985294 32:2 33:15 34:1 
-1 1:-30.4 2:18 3:61.111111 5:16.666667 6:5.555556 8:5.555556 9:55.555556 10:0.724638 11:0.241546 12:2.657005 13:6 15:8.333333 17:2.777778 18:2.777778 19:27.777778 20:2 21:5 22:-0.021628 23:-0.66087 24:-24.477337 25:-0.07343 26:-0.497455 27:-1.321739 28:0.782609 29:-0.057796 30:0.010386 31:-1.519608 32:3 33:14 34:1 
-1 1:-18.1 2:21 3:28.571429 4:14.285714 5:28.571429 6:4.761905 7:4.761905 8:19.047619 9:9.52381 10:2.040816 11:0.453515 12:1.360544 13:5 14:7.142857 15:14.285714 16:2.380952 17:2.380952 18:9.52381 19:4.761905 22:-0.030167 23:-0.430952 24:-12.177337 25:-0.041043 26:-0.6335 27:-0.861905 28:1 29:-0.062615 30:0.011263 31:1.495098 32:4 33:15 34:2 
-1 1:-18.8 2:16 3:25 4:25 5:31.25 6:6.25 7:6.25 9:25 10:2.556818 11:0.568182 12:1.136364 13:7.5 14:12.5 15:15.625 16:3.125 17:3.125 19:12.5 20:1 21:6 22:-0.034182 23:-0.427273 24:-12.877337 25:-0.053409 26:-0.752 27:-0.854545 28:0.727273 29:-0.059773 30:0.010752 31:1.323529 32:1 33:13 34:2 
-1 1:-18.8 2:20 3:30 4:5 5:35 7:5 8:15 9:15 10:1.73913 11:0.217391 12:1.304348 13:6.5 14:2.5 15:17.5 16:2.5 18:7.5 19:7.5 20:1 21:3 22:-0.027246 23:-0.408696 24:-12.877337 25:-0.04087 26:-0.626667 27:-0.817391 28:0.869565 29:-0.057179 30:0.010285 31:1.323529 32:5 33:14 34:1 
-1 1:-22.1 2:15 3:53.333333 4:6.666667 5:13.333333 6:6.666667 7:6.666667 8:26.666667 9:26.666667 10:1 11:0.666667 12:2.666667 13:5 14:3.333333 15:6.666667 16:3.333333 17:3.333333 18:13.333333 19:13.333333 20:2 21:5 22:-0.020719 23:-0.5525 24:-16.177337 25:-0.073667 26:-0.414375 27:-1.105 28:0.75 29:-0.066125 30:0.01189 31:0.514706 32:2 33:11 34:2 
-1 1:-19.4 2:20 3:20 4:20 5:25 6:5 7:10 8:15 9:5 10:2.045455 11:0.681818 12:0.909091 13:6.5 14:10 15:12.5 16:5 17:2.5 18:7.5 19:2.5 20:1 21:2 22:-0.044091 23:-0.440909 24:-13.477337 25:-0.044091 26:-0.97 27:-0.881818 28:0.909091 29:-0.059787 30:0.010754 31:1.176471 32:4 33:13 34:3 
-1 1:-18.3 2:22 3:22.727273 4:13.636364 5:31.818182 7:9.090909 9:22.727273 10:2.066116 11:0.413223 12:1.033058 13:4.5 14:6.818182 15:15.909091 16:4.545455 19:11.363636 22:-0.0366 23:-0.415909 24:-12.377337 25:-0.03781 26:-0.8052 27:-0.831818 28:1 29:-0.059847 30:0.010765 31:1.446078 32:5 33:15 34:2 
-0.5154695338706168 1:-23.4 2:19 3:36.842105 4:5.263158 5:15.789474 7:15.789474 8:31.578947 9:5.263158 10:1.002506 11:0.75188 12:1.754386 13:5.5 14:2.631579 15:7.894737 16:7.894737 18:15.789474 19:2.631579 20:2 21:2 22:-0.030245 23:-0.557143 24:-17.477337 25:-0.058647 26:-0.635143 27:-1.114286 28:0.904762 29:-0.063146 30:0.011351 31:0.196078 32:5 33:11 34:3 
-1 1:-20.5 2:20 3:35 4:10 5:20 7:25 8:15 9:20 10:1.428571 11:1.190476 12:1.666667 13:7.5 14:5 15:10 16:12.5 18:7.5 19:10 21:1 22:-0.027891 23:-0.488095 24:-14.577337 25:-0.04881 26:-0.585714 27:-0.97619 28:0.952381 29:-0.062713 30:0.01128 31:0.906863 32:2 33:13 34:5 
-0.2124988918130247 1:-22.9 2:19 3:52.631579 4:5.263158 5:21.052632 6:5.263158 8:21.052632 9:31.578947 10:1.196172 11:0.239234 12:2.392344 13:5.5 14:2.631579 15:10.526316 17:2.631579 18:10.526316 19:15.789474 20:1 21:3 22:-0.019777 23:-0.520455 24:-16.977337 25:-0.054785 26:-0.4351 27:-1.040909 28:0.863636 29:-0.06021 30:0.010825 31:0.318627 32:3 33:15 34:1 
-1 1:-17.7 2:21 3:23.809524 4:9.52381 5:28.571429 6:14.285714 7:4.761905 8:14.285714 9:9.52381 10:1.731602 11:0.865801 12:1.082251 13:6 14:4.761905 15:14.285714 16:2.380952 17:7.142857 18:7.142857 19:4.761905 21:1 22:-0.033791 23:-0.402273 24:-11.777337 25:-0.038312 26:-0.7434 27:-0.804545 28:0.954545 29:-0.059745 30:0.010747 31:1.593137 32:4 33:13 34:4 
