svm_type c_svc
kernel_type rbf
gamma 0.0078125
nr_class 2
total_sv 71
rho -2.13035
label 1 2
nr_sv 44 27
SV
6.233382224359988 1:-0.333333 2:0.333333 3:0.333333 4:-1 5:1 6:0.333333 7:0.333333 8:-1 9:0.333333 10:-1 11:-1 12:1 13:-0.333333 14:0.333333 15:-1 16:-0.333333 17:-1 18:-1 19:0.333333 20:0.333333 21:0.5 23:-1 24:-1 25:-0.2 26:-1 27:0.5 28:-1 
32 1:1 2:-1 3:-1 4:1 5:-0.333333 6:-1 7:0.333333 8:-1 9:1 10:-0.333333 11:0.333333 12:-0.333333 13:0.333333 14:-1 15:0.333333 16:1 17:-0.333333 18:-0.333333 19:1 20:-0.333333 21:-0.5 22:0.5 23:-1 24:-1 25:-0.6 26:-0.5 27:-1 28:-1 
31.61030721419559 1:-0.333333 2:1 3:-1 4:-1 5:0.333333 6:-1 7:0.333333 8:1 9:-1 10:-1 11:-0.333333 12:-1 13:-1 14:1 15:0.333333 16:-1 17:-1 18:-1 19:-1 20:-1 22:0.5 24:-1 25:1 26:-1 27:-1 28:-1 
11.20449316432231 1:-1 2:-1 3:1 4:-1 5:-0.333333 6:-0.333333 7:1 8:-1 9:-1 10:1 11:0.333333 12:1 13:-0.333333 14:0.333333 15:-0.333333 16:1 17:0.333333 18:0.333333 19:-0.333333 20:0.333333 21:-0.5 22:0.5 24:-1 25:-0.2 26:-0.5 27:-0.5 28:-1 
4.610574357999153 1:-0.333333 2:0.333333 3:0.333333 4:1 5:-1 6:0.333333 7:-0.333333 8:0.333333 9:-0.333333 10:-1 11:-0.333333 12:-0.333333 13:0.333333 14:-0.333333 15:-0.333333 16:-1 17:0.333333 18:1 19:-0.333333 20:0.333333 21:0.5 23:-1 24:-1 25:-1 28:-1 
31.63683778117285 1:1 2:-0.333333 3:0.333333 4:-1 5:-1 6:0.333333 7:1 8:-0.333333 9:1 10:-1 11:0.333333 12:-1 13:0.333333 14:0.333333 15:0.333333 16:1 17:-0.333333 18:1 19:-0.333333 20:0.333333 21:-0.5 23:-1 24:-1 25:-0.6 26:-1 27:-0.5 28:-1 
11.88294898282729 1:-0.333333 2:0.333333 3:1 4:1 5:-0.333333 6:-1 7:1 8:-0.333333 9:0.333333 10:-1 11:0.333333 12:1 13:-0.333333 14:0.333333 15:-1 16:-0.333333 17:-1 18:-0.333333 19:1 20:-1 21:0.5 23:-1 24:-1 25:-1 26:-1 27:-1 28:-0.5 
22.73334435683656 1:-0.333333 2:-1 3:0.333333 4:1 5:-1 6:0.333333 7:1 8:-1 9:1 10:-1 11:0.333333 12:-1 13:-1 14:-1 15:-0.333333 16:-1 17:-0.333333 18:-0.333333 19:0.333333 20:0.333333 21:1 22:-1 23:-1 24:-1 25:-0.6 26:-0.5 27:-0.5 28:-1 
1.651241904406394 1:1 2:-1 3:-1 4:-0.333333 5:1 6:-1 7:1 8:-0.333333 9:-1 10:-1 11:1 12:-0.333333 13:1 14:1 15:-1 16:1 17:-0.333333 18:0.333333 19:1 20:1 21:-0.5 23:-1 24:-1 25:-0.2 26:-1 27:-1 
9.391536776057798 1:-1 2:0.333333 3:1 4:-1 5:0.333333 6:1 7:-1 8:-0.333333 9:-0.333333 10:0.333333 11:-0.333333 12:-1 13:1 14:-1 15:0.333333 16:0.333333 17:0.333333 18:1 19:-0.333333 20:-1 22:1 23:-0.5 24:-1 25:-1 26:-0.5 27:-0.5 28:-1 
32 1:-0.333333 2:-1 3:0.333333 4:1 5:-1 6:0.333333 7:1 8:-1 9:1 10:0.333333 11:-0.333333 12:-1 13:-1 14:-1 15:-0.333333 16:-1 17:-0.333333 18:-0.333333 19:0.333333 20:0.333333 21:1 22:0.5 23:-1 24:-1 25:-0.6 26:-0.5 27:-0.5 28:-1 
32 1:1 2:-1 3:0.333333 4:1 5:-1 6:0.333333 7:1 8:-1 9:-1 10:-0.333333 11:-0.333333 12:1 13:-1 14:-0.333333 15:0.333333 16:-0.333333 17:-0.333333 18:-0.333333 19:-0.333333 20:0.333333 21:-0.5 22:-0.5 23:-1 24:-1 25:-0.2 26:0.5 27:-1 28:-1 
32 1:-0.333333 2:-1 3:0.333333 4:1 5:-1 6:0.333333 7:1 8:0.333333 9:0.333333 10:0.333333 11:-1 12:-1 13:1 14:-1 15:0.333333 16:-0.333333 17:-0.333333 18:1 19:-0.333333 20:0.333333 21:1 22:-0.5 23:0.5 24:-1 25:-0.6 26:-0.5 27:-0.5 28:-1 
4.223382368029534 1:1 2:0.333333 3:-0.333333 4:0.333333 5:-0.333333 6:-0.333333 7:1 8:-1 9:1 10:-1 11:0.333333 12:1 13:0.333333 14:0.333333 15:-1 16:1 17:1 18:-0.333333 19:-0.333333 20:0.333333 21:-0.5 23:-1 24:-1 25:-1 27:-0.5 28:-0.5 
3.114572244931876 1:-1 2:1 3:-0.333333 4:-0.333333 5:-1 6:-1 7:-1 8:1 9:0.333333 10:-0.333333 11:0.333333 12:0.333333 13:-1 14:-0.333333 15:0.333333 16:-0.333333 17:-1 18:1 19:-0.333333 20:-0.333333 21:0.5 22:1 24:-1 25:-0.6 27:-0.5 28:-1 
11.01650018508708 1:-0.333333 2:0.333333 3:0.333333 4:1 5:-1 6:0.333333 7:-0.333333 8:0.333333 9:-0.333333 10:1 11:-0.333333 12:-0.333333 13:-1 14:0.333333 15:1 16:-0.333333 17:0.333333 18:0.333333 19:-0.333333 20:-0.333333 21:0.5 23:-1 24:-1 25:-1 28:-1 
20.08122215288642 1:-0.333333 2:-0.333333 3:-1 4:-1 5:-0.333333 6:0.333333 7:1 8:-0.333333 9:-1 10:-1 11:-0.333333 12:1 13:0.333333 14:-0.333333 15:0.333333 16:-1 17:-0.333333 18:-1 19:0.333333 20:0.333333 21:0.5 22:0.5 24:-1 25:-0.2 26:-0.5 28:-1 
16.06567580182912 1:-0.333333 2:1 3:0.333333 4:0.333333 5:0.333333 6:0.333333 7:-1 8:-0.333333 9:1 10:-1 11:-0.333333 12:1 13:-1 14:-0.333333 15:0.333333 16:-0.333333 17:1 18:-1 19:1 20:0.333333 21:-0.5 22:0.5 23:-0.5 24:-1 25:-1 26:-1 28:-1 
25.82224961859092 1:-0.333333 2:1 3:1 4:1 5:-0.333333 6:0.333333 7:-1 8:0.333333 9:-1 10:1 11:1 12:1 13:-0.333333 14:-0.333333 15:-0.333333 16:-1 17:-1 18:1 19:1 20:-0.333333 21:0.5 23:0.5 24:-0.333333 25:-0.6 26:-0.5 27:-1 28:0.5 
17.38616019370851 1:-1 2:0.333333 3:-0.333333 4:-0.333333 5:1 6:-0.333333 7:-0.333333 8:1 9:-1 10:0.333333 11:-0.333333 12:0.333333 13:0.333333 14:1 15:-1 16:-1 17:0.333333 18:1 19:-0.333333 20:-0.333333 22:-0.5 23:-1 24:-1 25:-0.6 26:0.5 27:-0.5 28:-1 
4.856467657644314 1:-1 2:0.333333 3:-0.333333 4:-0.333333 5:-0.333333 6:-0.333333 7:0.333333 8:1 9:-1 10:-0.333333 11:-1 12:0.333333 13:-0.333333 14:-0.333333 15:0.333333 16:1 17:-1 18:1 19:-0.333333 20:-1 21:1 22:-0.5 23:-1 24:-1 25:-1 26:0.5 27:-1 28:-1 
8.992092466787557 1:-1 2:1 3:-0.333333 4:-0.333333 5:-0.333333 6:-1 7:-1 8:1 9:-1 10:-0.333333 11:0.333333 12:0.333333 13:-1 14:0.333333 15:0.333333 16:1 17:-1 18:1 19:-0.333333 20:-0.333333 21:0.5 22:1 23:-1 24:-1 25:-0.6 28:-1 
11.8143761285842 1:-0.333333 2:-0.333333 3:1 4:-1 5:1 6:-1 7:-0.333333 8:-0.333333 9:0.333333 10:-0.333333 11:0.333333 12:1 13:-0.333333 14:-1 15:1 16:-0.333333 17:0.333333 18:-0.333333 19:1 20:-0.333333 21:0.5 22:1 23:-1 24:-1 25:-1 27:-1 28:-1 
25.23318406217544 1:-0.333333 2:0.333333 3:0.333333 4:-1 5:-1 6:-0.333333 7:0.333333 8:-0.333333 9:-1 10:-1 11:0.333333 12:0.333333 13:-1 14:-1 15:0.333333 16:-0.333333 17:0.333333 18:-0.333333 19:0.333333 20:-0.333333 21:0.5 22:0.5 23:-1 24:-1 25:0.2 26:-1 27:0.5 28:-1 
8.341412412566502 1:-1 2:-1 3:1 4:1 5:1 6:0.333333 7:-0.333333 8:-1 9:0.333333 10:-1 11:-0.333333 12:1 13:1 14:0.333333 15:-1 16:-1 17:1 18:-0.333333 19:-0.333333 20:0.333333 22:0.5 23:-1 24:-1 25:-0.2 26:-0.5 27:-1 
11.32869854581671 1:1 2:-1 3:-0.333333 4:1 5:-0.333333 6:-0.333333 7:-1 8:1 9:-0.333333 10:0.333333 11:0.333333 12:0.333333 13:1 14:-1 15:0.333333 16:1 17:-1 18:-0.333333 19:-0.333333 20:0.333333 21:0.5 22:-0.5 23:-1 24:-1 25:-1 28:-1 
14.48530073879939 1:-1 2:1 3:-0.333333 4:0.333333 5:1 6:-1 7:0.333333 8:-0.333333 9:0.333333 10:-1 11:-1 12:0.333333 13:0.333333 14:1 15:-1 16:1 17:-0.333333 18:-0.333333 19:0.333333 20:-0.333333 21:-0.5 22:0.5 23:-1 24:-1 25:-0.6 26:-0.5 27:-0.5 28:-1 
7.60440149758959 1:-0.333333 2:0.333333 3:-1 4:0.333333 5:0.333333 6:-0.333333 7:-1 8:0.333333 9:-0.333333 10:-1 11:0.333333 12:-0.333333 13:-0.333333 14:-0.333333 15:0.333333 16:-0.333333 17:-1 18:1 19:-1 20:0.333333 23:-1 24:-1 25:-1 27:-0.5 28:-1 
9.032124215397843 1:-0.333333 2:0.333333 3:-1 4:0.333333 5:0.333333 6:-0.333333 7:-1 8:0.333333 9:-0.333333 10:-1 11:-1 12:0.333333 13:-0.333333 14:-0.333333 15:0.333333 16:-0.333333 17:-1 18:-0.333333 19:-0.333333 20:0.333333 23:-1 24:-1 25:-0.6 26:0.5 27:-0.5 28:-1 
32 1:0.333333 2:0.333333 3:-0.333333 4:0.333333 5:1 6:-1 7:0.333333 8:-0.333333 9:0.333333 10:1 11:-0.333333 12:0.333333 13:1 14:-1 15:-0.333333 16:1 17:-0.333333 18:1 19:-0.333333 20:0.333333 21:0.5 23:-1 24:-1 25:-1 26:-1 28:-1 
13.78150295953716 1:-1 2:1 3:-0.333333 4:0.333333 5:1 6:1 7:1 8:-0.333333 9:-1 10:-1 11:0.333333 12:-0.333333 13:0.333333 14:1 15:-0.333333 16:1 17:1 18:-0.333333 19:-0.333333 20:1 22:0.5 23:0.5 24:-1 25:-0.6 26:-0.5 27:-0.5 
12.52476169566315 1:-0.333333 2:-0.333333 3:-0.333333 4:0.333333 5:0.333333 6:1 7:-1 8:1 9:-0.333333 10:-1 11:0.333333 12:1 13:-1 14:1 15:-1 16:-0.333333 17:-0.333333 18:-0.333333 19:-0.333333 20:-0.333333 21:0.5 22:1 24:-1 25:-1 26:0.5 27:-0.5 28:-1 
32 1:1 2:0.333333 3:-0.333333 4:0.333333 5:-0.333333 6:-1 7:-0.333333 8:-0.333333 9:-0.333333 10:0.333333 11:-1 12:1 13:-1 14:-1 15:0.333333 16:1 17:-0.333333 18:0.333333 19:-1 20:0.333333 23:-1 24:-1 25:-0.6 27:-1 28:-1 
32 1:-0.333333 2:0.333333 3:1 4:1 5:-0.333333 6:0.333333 7:-0.333333 8:1 9:-0.333333 10:-1 11:1 12:-1 13:1 14:-0.333333 15:-0.333333 16:0.333333 17:1 18:-0.333333 19:0.333333 20:-0.333333 21:0.5 22:1 23:-1 24:-1 25:-1 26:-0.5 27:-1 28:-0.5 
3.291965648977994 1:-0.333333 2:1 3:0.333333 4:-1 5:0.333333 6:0.333333 7:-1 8:0.333333 9:1 10:-0.333333 11:1 12:-1 13:1 14:-1 15:0.333333 16:-0.333333 17:1 18:-0.333333 19:-1 20:0.333333 22:-1 23:-1 24:-1 25:-1 26:-1 27:-0.5 28:-1 
2.238817628170948 1:-1 2:-1 3:0.333333 4:0.333333 5:-1 6:0.333333 7:1 8:-0.333333 9:-0.333333 10:-1 11:1 12:-1 13:-1 14:-0.333333 15:1 16:-0.333333 17:-1 18:0.333333 19:1 20:-0.333333 21:0.5 22:0.5 23:0.5 24:-1 25:-0.2 26:-0.5 28:-1 
4.277390007252087 1:-1 2:1 3:-0.333333 4:1 5:-1 6:-1 7:-1 8:-1 9:-0.333333 10:0.333333 11:0.333333 12:0.333333 13:0.333333 14:0.333333 15:1 16:0.333333 17:1 18:-0.333333 19:-0.333333 20:-0.333333 21:1 22:1 23:-1 24:-1 25:-0.2 26:-0.5 28:-0.5 
3.811393737894578 1:-0.333333 2:1 3:-0.333333 4:1 5:1 6:1 7:-1 8:-1 9:1 10:1 11:1 12:-0.333333 13:-0.333333 14:0.333333 15:-0.333333 16:-1 17:1 18:1 19:-1 20:0.333333 22:0.5 23:-1 24:-1 25:-0.6 26:-0.5 27:-1 28:0.5 
32 1:1 2:-1 3:-1 4:0.333333 5:-0.333333 6:1 7:-1 8:1 9:-0.333333 10:-1 11:0.333333 12:-0.333333 13:0.333333 14:0.333333 15:-0.333333 16:-0.333333 17:1 18:1 19:0.333333 20:-0.333333 22:-1 23:-1 24:-1 25:-0.6 27:-0.5 28:-0.5 
2.802337645668075 1:1 2:-1 3:0.333333 4:1 5:-1 6:0.333333 7:1 8:-1 9:1 10:-1 11:1 12:-0.333333 13:0.333333 14:-0.333333 15:0.333333 16:0.333333 17:-0.333333 18:-0.333333 19:-0.333333 20:0.333333 22:-1 23:-1 24:-1 25:-1 26:-0.5 27:-0.5 28:-1 
20.3828306698992 1:-0.333333 2:-1 3:-0.333333 4:0.333333 5:0.333333 6:1 7:-1 8:1 9:-0.333333 10:0.333333 11:0.333333 12:-0.333333 13:-1 14:0.333333 15:-1 16:-1 17:-0.333333 18:-0.333333 19:1 20:-1 21:1 23:-1 24:-1 25:-0.6 26:-0.5 28:-1 
16.24779859118282 1:-0.333333 2:1 3:-0.333333 4:1 5:-0.333333 6:0.333333 7:0.333333 8:0.333333 9:1 10:1 11:-0.333333 12:0.333333 13:-0.333333 14:0.333333 15:-0.333333 16:1 17:-0.333333 18:-0.333333 19:-1 20:0.333333 21:0.5 22:1 23:-1 24:-1 25:-1 26:-0.5 28:-0.5 
7.25852763076902 1:1 2:-1 3:-1 4:-1 5:0.333333 6:-0.333333 7:0.333333 8:1 9:-0.333333 10:0.333333 11:-0.333333 12:-0.333333 13:1 14:0.333333 15:-0.333333 16:0.333333 17:1 18:-1 19:0.333333 20:0.333333 22:-0.5 23:0.5 24:-1 25:-0.6 26:-0.5 27:-0.5 28:-1 
16.11518654862437 1:1 2:-0.333333 3:1 4:-0.333333 5:-1 6:0.333333 7:-1 8:0.333333 9:0.333333 10:0.333333 11:-1 12:-1 13:0.333333 14:1 15:0.333333 16:1 17:-0.333333 18:-0.333333 19:-0.333333 20:1 22:0.5 23:-1 24:-1 25:-0.6 26:-0.5 27:-0.5 28:-1 
-18.12459792945263 1:1 2:-1 3:-0.333333 4:-0.333333 5:-1 6:-0.333333 7:-0.333333 8:-1 9:1 10:-0.333333 11:-0.333333 12:-0.333333 13:-0.333333 14:0.333333 15:0.333333 16:-0.333333 17:-1 18:1 19:0.333333 20:1 21:0.5 22:-1 23:-1 24:-1 25:0.6 26:-0.5 27:-1 28:-1 
-23.89010445546115 1:-0.333333 2:0.333333 3:1 4:1 5:-0.333333 6:-1 7:1 8:-0.333333 9:0.333333 10:-1 11:0.333333 12:1 13:-0.333333 14:0.333333 15:-1 16:-1 17:-1 18:1 19:-1 20:1 21:-0.5 22:0.5 23:-1 24:-0.333333 25:-1 26:-1 27:-0.5 28:-1 
-32 1:-0.333333 2:0.333333 3:-1 4:0.333333 5:0.333333 6:-0.333333 7:-1 8:0.333333 9:-0.333333 10:-1 11:0.333333 12:0.333333 13:-0.333333 14:-0.333333 15:0.333333 16:-0.333333 17:0.333333 18:-0.333333 19:0.333333 20:0.333333 23:-1 24:-1 25:-0.2 26:0.5 27:-1 28:-1 
-32 1:-1 2:0.333333 3:1 4:-0.333333 5:0.333333 6:0.333333 7:-0.333333 8:0.333333 9:-0.333333 10:-0.333333 11:0.333333 12:-0.333333 13:0.333333 14:-1 15:-1 16:-0.333333 17:1 18:-1 19:0.333333 20:0.333333 21:1 22:1 23:0.5 24:-0.333333 25:-0.6 27:-0.5 28:-1 
-1.754891846463828 1:-0.333333 2:0.333333 3:0.333333 4:-1 5:-1 6:-0.333333 7:0.333333 8:-0.333333 9:-1 10:-1 11:-1 12:0.333333 13:-1 14:-1 15:0.333333 16:-0.333333 17:-1 18:-0.333333 19:0.333333 20:-0.333333 21:-0.5 23:-1 24:1 25:-1 26:-0.5 27:-1 28:-1 
-32 1:1 2:-1 3:-0.333333 4:1 5:-0.333333 6:-0.333333 7:-1 8:1 9:1 10:0.333333 11:0.333333 12:-1 13:1 14:-1 15:0.333333 16:-0.333333 17:0.333333 18:1 19:-0.333333 20:0.333333 21:0.5 22:-0.5 23:-1 24:-1 25:-0.6 27:-0.5 28:-1 
-32 1:-0.333333 2:0.333333 3:-1 4:0.333333 5:0.333333 6:-0.333333 7:-1 8:0.333333 9:0.333333 10:-1 11:0.333333 12:0.333333 13:-0.333333 14:-0.333333 15:0.333333 16:-0.333333 17:-1 18:-0.333333 19:-1 20:0.333333 23:-1 24:-1 25:-0.2 26:0.5 27:-1 28:-1 
-32 1:0.333333 2:0.333333 3:0.333333 4:0.333333 5:0.333333 6:1 7:1 8:0.333333 9:-1 10:-0.333333 11:-1 12:1 13:-1 14:1 15:-0.333333 16:0.333333 17:-0.333333 18:-1 19:1 20:0.333333 21:-0.5 22:0.5 23:-0.5 24:-1 25:-1 27:-0.5 28:-1 
-26.66975731166166 1:1 2:-0.333333 3:1 4:1 5:-0.333333 6:-1 7:1 8:-1 9:-0.333333 10:-1 11:-0.333333 12:-0.333333 13:-1 14:0.333333 15:1 16:-1 17:-0.333333 18:-0.333333 19:-1 20:-1 21:1 22:-0.5 23:-1 24:-0.333333 25:-0.2 26:-1 27:-0.5 28:-1 
-3.215576920137506 1:1 2:-0.333333 3:-1 4:-0.333333 5:-1 6:1 7:-1 8:-1 9:1 10:1 11:-0.333333 12:-1 13:1 14:-0.333333 15:0.333333 16:1 17:1 18:-0.333333 19:-0.333333 20:1 21:1 22:1 23:-1 24:-0.333333 25:-0.6 26:-1 27:0.5 28:-1 
-12.16467834436934 1:1 2:1 3:-1 4:-1 5:-0.333333 6:-1 7:-0.333333 8:-0.333333 9:-1 10:1 11:-0.333333 12:0.333333 13:-0.333333 14:0.333333 15:1 16:-0.333333 17:0.333333 18:1 19:-0.333333 20:-0.333333 22:-0.5 23:-1 24:-0.333333 25:-0.2 26:-1 27:-0.5 28:-1 
-32 1:1 2:-1 3:0.333333 4:0.333333 5:1 6:1 7:-1 8:-0.333333 9:-1 10:-0.333333 11:-0.333333 12:0.333333 13:-0.333333 14:0.333333 15:1 16:-0.333333 17:0.333333 18:1 19:1 20:-0.333333 21:1 22:-0.5 23:-1 24:-1 25:-0.6 26:-0.5 28:-1 
-32 1:1 2:0.333333 3:-0.333333 4:0.333333 5:-0.333333 6:-0.333333 7:1 8:-1 9:1 10:-1 11:0.333333 12:1 13:0.333333 14:0.333333 15:-1 16:1 17:1 18:-0.333333 19:-0.333333 20:0.333333 21:-0.5 23:-1 24:-1 25:-0.2 26:-0.5 27:-0.5 28:-1 
-32 1:-0.333333 2:-1 3:0.333333 4:1 5:-1 6:0.333333 7:1 8:-1 9:1 10:0.333333 11:-0.333333 12:-1 13:-1 14:-1 15:-0.333333 16:-1 17:-0.333333 18:-0.333333 19:0.333333 20:0.333333 21:1 22:0.5 23:-1 24:-0.333333 25:-0.6 26:-0.5 27:-1 28:-1 
-32 1:1 2:-0.333333 3:-1 4:-0.333333 5:-1 6:1 7:0.333333 8:0.333333 9:1 10:1 11:-0.333333 12:1 13:1 14:-0.333333 15:-1 16:0.333333 17:1 18:-0.333333 19:-0.333333 20:-0.333333 21:1 22:1 23:-1 24:-1 25:-0.6 26:-0.5 27:0.5 28:-1 
-32 1:-1 2:0.333333 3:1 4:-1 5:0.333333 6:1 7:-1 8:-0.333333 9:-0.333333 10:0.333333 11:-0.333333 12:-1 13:1 14:-1 15:0.333333 16:0.333333 17:0.333333 18:1 19:-0.333333 20:-1 22:0.5 23:-0.5 24:-1 25:-0.6 26:-0.5 27:-1 28:-1 
-23.25392958719784 1:-0.333333 2:-1 3:0.333333 4:1 5:-1 6:1 7:1 8:-1 9:-0.333333 10:1 11:-0.333333 12:0.333333 13:-1 14:-1 15:-1 16:-0.333333 17:1 18:0.333333 19:0.333333 20:-0.333333 22:-0.5 23:-1 24:-0.333333 25:-0.6 26:-0.5 27:-0.5 28:-1 
-32 1:-0.333333 2:0.333333 3:-1 4:1 5:1 6:0.333333 7:-1 8:-0.333333 9:-0.333333 10:-0.333333 11:1 12:-0.333333 13:1 14:1 15:-0.333333 16:0.333333 17:0.333333 18:-0.333333 19:0.333333 20:-0.333333 22:1 23:-1 24:-1 25:-0.2 26:-0.5 28:-1 
-23.83673525051003 1:-1 2:1 3:-0.333333 4:-0.333333 5:-1 6:-1 7:-1 8:1 9:0.333333 10:-0.333333 11:0.333333 12:0.333333 13:-1 14:-0.333333 15:0.333333 16:-0.333333 17:-1 18:1 19:-0.333333 20:-0.333333 21:0.5 22:1 24:-0.333333 25:-0.2 26:-0.5 27:-1 28:-1 
-5.386301806726946 1:-1 2:0.333333 3:1 4:-0.333333 5:-0.333333 6:1 7:-0.333333 8:-0.333333 9:-0.333333 10:-1 11:1 12:-1 13:0.333333 14:-0.333333 15:0.333333 16:1 17:-0.333333 18:0.333333 19:1 20:1 23:0.5 24:-1 25:0.2 26:-1 27:-0.5 28:-1 
-32 1:-1 2:0.333333 3:-0.333333 4:-0.333333 5:-0.333333 6:-0.333333 7:0.333333 8:1 9:-1 10:-0.333333 11:-1 12:0.333333 13:-0.333333 14:-0.333333 15:0.333333 16:1 17:-1 18:1 19:-0.333333 20:-1 21:1 22:-0.5 23:-1 24:-1 25:0.2 26:-1 27:-1 28:-1 
-32 1:-0.333333 2:-1 3:0.333333 4:1 5:-1 6:0.333333 7:1 8:-1 9:1 10:-1 11:-0.333333 12:-1 13:-1 14:-0.333333 15:0.333333 16:0.333333 17:-0.333333 18:-0.333333 19:-0.333333 20:0.333333 22:0.5 23:-1 24:-0.333333 25:-0.6 26:-0.5 27:-1 28:-1 
-32 1:-0.333333 2:0.333333 3:1 4:1 5:-0.333333 6:-1 7:1 8:-0.333333 9:0.333333 10:-1 11:0.333333 12:1 13:-0.333333 14:0.333333 15:-1 16:-0.333333 17:-1 18:-0.333333 19:1 20:-1 21:0.5 23:-1 24:-1 25:-1 26:-1 27:-0.5 28:-1 
-32 1:-1 2:0.333333 3:-0.333333 4:-0.333333 5:-0.333333 6:-0.333333 7:0.333333 8:1 9:-1 10:0.333333 11:0.333333 12:-0.333333 13:-0.333333 14:-0.333333 15:0.333333 16:1 17:-1 18:-0.333333 19:1 20:1 21:-0.5 22:0.5 23:1 24:-1 25:0.2 26:-0.5 27:-0.5 28:-1 
-22.03479235507632 1:1 2:0.333333 3:0.333333 4:0.333333 5:0.333333 6:1 7:1 8:0.333333 9:-0.333333 10:-1 11:0.333333 12:1 13:-1 14:1 15:-0.333333 16:0.333333 17:-0.333333 18:1 19:-0.333333 20:0.333333 21:-0.5 22:0.5 23:-0.5 24:-1 25:-1 27:-0.5 28:-1 
-32 1:1 2:-1 3:-0.333333 4:1 5:-0.333333 6:-0.333333 7:1 8:1 9:-1 10:0.333333 11:-0.333333 12:-1 13:1 14:-1 15:0.333333 16:-0.333333 17:0.333333 18:-0.333333 19:-0.333333 20:0.333333 21:0.5 22:-0.5 23:-1 24:-1 25:-0.2 26:-0.5 27:-0.5 28:-1 
-16.75363400918509 1:0.333333 2:1 3:-0.333333 4:-1 5:-0.333333 6:-0.333333 7:-0.333333 8:1 9:-1 10:1 11:0.333333 12:-1 13:1 14:-1 15:1 16:1 17:-1 18:0.333333 19:0.333333 20:0.333333 23:-1 24:-1 25:-0.2 26:-0.5 27:-0.5 28:-1 
